nep4 2 In Se 
cutoff 8 4 84 15
n_max 12 8
basis_size 12 12
l_max 4 2 0
ANN 80 0
 -1.5286523e-01
 -1.1756046e-02
 -8.1166410e-01
  9.0443715e-02
  8.3826971e-01
  4.2429019e-02
  1.3209929e-02
 -8.9013189e-01
 -5.7861280e-01
 -7.7111667e-01
 -7.4883568e-01
 -4.5332584e-01
  8.2140118e-01
  3.7138560e-03
  2.2017948e-02
  5.2168999e-02
 -1.0542237e-01
 -1.9051787e-01
  1.0919172e-01
 -2.0820953e-02
 -1.0077524e-01
 -1.8182559e-01
  1.1136039e-02
  2.0016072e-02
 -2.2089872e-01
  5.5606582e-04
 -1.0535650e-01
 -6.3766426e-01
 -7.2720937e-02
  8.7450385e-02
  1.8821841e-02
  8.9990278e-04
 -4.8612216e-03
 -1.5147214e-01
 -2.9937020e-01
  6.6170692e-02
 -1.9257623e-01
 -2.0807842e-02
 -1.9425888e-02
 -5.0200582e-02
 -1.2611799e-02
  4.1706454e-02
 -9.2598736e-02
 -2.4217388e-01
  5.3937721e-01
 -3.5233859e-02
 -2.0868079e-01
  6.8410756e-03
  2.3409750e-02
 -8.3050288e-02
 -3.9902754e-02
  4.9556483e-02
 -5.9197739e-02
  6.1909020e-02
 -3.0179743e-02
  1.1220337e-01
  6.1116021e-02
  2.3779998e-02
 -1.0309109e-02
  1.9241583e-02
  4.9105648e-02
 -4.7620125e-02
 -2.1888196e-02
 -8.9509964e-02
  6.6869415e-02
 -1.5405258e-02
 -1.9651471e-02
 -8.5389232e-03
 -4.1257523e-02
  4.4438932e-02
 -2.2997942e-02
 -7.2978698e-02
  3.7514518e-03
 -1.1686519e-02
  2.7757697e-03
  5.3524923e-02
  1.4600167e-02
 -5.1772140e-02
 -4.2859938e-02
 -6.1977040e-03
 -7.7083083e-03
  3.1081757e-01
  3.0816250e-02
 -6.8895645e-02
  2.9491393e-03
 -4.4168282e-02
  1.0861698e-01
 -1.5245708e-02
  2.4397261e-02
  2.6773516e-02
 -2.8374568e-02
  4.4577155e-02
  4.3713212e-02
  1.5729835e-02
  3.2430012e-02
 -3.2794751e-02
  3.1186637e-02
  1.0625998e-02
  5.1761243e-02
  2.6939958e-02
  1.4160261e-02
  3.5827002e-04
 -1.3455024e-02
  2.2158310e-02
  3.5659666e-03
 -1.2244473e-02
 -1.6152725e-02
  5.7945475e-03
  3.0524300e-02
 -5.0713867e-02
  1.3319537e-02
  2.0784397e-02
 -1.2963819e-02
 -7.3569432e-02
  1.7611962e-02
 -2.5134660e-02
  1.7202757e-03
  1.7125694e-02
  1.5086790e-02
  2.8261808e-03
  1.1230509e-01
 -1.5342465e-02
  2.1433843e-02
  2.0452512e-02
  2.5268508e-02
  4.6242878e-02
  5.2266538e-02
  2.4198387e-02
  2.6278665e-02
 -1.3018383e-01
  2.0502588e-02
 -1.6487762e-02
  1.2503260e-01
  3.2054473e-02
  4.5952935e-02
  2.6312944e-02
  1.2052011e-03
  1.8054225e-02
 -8.7855212e-02
 -3.8828935e-02
 -1.3473517e-02
 -1.9097893e-02
  6.1382931e-03
  1.0886825e-01
  5.7175659e-02
 -1.5472144e-02
 -1.4729291e-02
 -1.1621149e-02
 -5.0727177e-02
 -7.0523113e-02
  6.2486470e-02
  1.0333795e-01
  3.8266592e-02
 -1.1773910e-02
  4.1477415e-03
 -1.3140034e-02
 -3.0213242e-02
 -2.5255380e-02
  1.4937328e-02
  2.6948873e-03
  1.7262638e-02
 -9.6001429e-03
 -2.6160793e-03
  1.1504123e-01
 -7.7054799e-02
  1.0390472e-02
  2.9195974e-02
 -4.7776621e-02
  2.2694448e-02
 -1.1403136e-02
 -8.5025858e-03
  4.3398149e-02
 -3.1293184e-03
  2.0531265e-02
 -2.0594582e-02
  5.2061178e-02
 -6.2915586e-02
  2.7134243e-02
  1.2877117e-01
  1.3327066e-02
 -2.8430320e-02
 -8.5713401e-02
 -9.6882181e-03
 -2.3322187e-02
 -4.9148113e-03
  7.1747810e-02
 -4.8443235e-02
  2.2153568e-02
  6.3555524e-02
 -2.4803147e-02
 -1.4979335e-02
  3.0926341e-02
  3.4638580e-02
  8.3919831e-02
 -2.4592414e-02
  7.3110484e-02
 -2.3118716e-03
 -5.5353604e-02
  1.1516761e-02
 -2.3128077e-02
 -2.3229150e-02
 -2.0363359e-03
  1.1209211e-01
  6.7574484e-04
 -3.0326478e-02
 -6.0008140e-03
 -1.1166729e-01
 -3.6010530e-02
 -1.5086114e-01
  1.4184947e-01
 -9.1299266e-03
  7.3695727e-02
  8.1317555e-03
 -3.7507426e-02
  9.2227999e-03
  5.8919932e-03
 -1.8843742e-01
 -6.0017072e-02
 -2.5851183e-02
 -9.6803717e-03
  4.7507875e-02
  1.5674289e-02
 -4.2730335e-02
  1.9000398e-02
  3.9280981e-02
 -3.8969975e-02
  3.1258572e-02
 -1.4978643e-03
  9.7888485e-03
  5.4287255e-02
 -1.5955814e-04
  1.4961176e-01
 -6.0153157e-01
 -8.1639150e-03
 -1.5517547e+00
 -8.6481303e-02
  2.4182301e-02
 -1.3005977e-02
  1.7648222e-01
 -1.5744931e-01
  1.5566049e+00
  2.9723153e-01
 -9.4455725e-01
 -3.7627482e-01
  5.8254200e-01
  2.6148367e-01
  6.2527214e-03
  1.3490191e+00
  1.6658415e-01
  6.2380332e-01
  6.0064322e-01
  2.0104663e-01
  5.8360384e-03
  1.2986648e-01
  1.3710344e-01
  6.0824417e-02
  1.0631995e+00
  3.0025968e-01
  9.2743784e-02
  5.5108917e-01
  4.0895507e-01
 -1.7484646e-01
  5.0712667e-02
 -1.9538568e-02
 -1.5489414e-04
 -3.8031122e-01
  1.1863414e-01
  9.6123928e-01
 -5.7985815e-03
 -4.3063191e-01
  2.6138145e-02
  4.3032367e-02
 -9.5143534e-02
  2.6254095e-02
  1.3821192e-02
  5.0026555e-02
  2.3950270e-01
 -2.8216407e-02
  4.1173868e-02
  8.4777273e-02
  6.2819999e-03
  6.1017852e-02
 -3.5892792e-02
 -5.0406355e-02
  1.5220791e-01
  2.2020116e-01
  7.7450322e-03
 -1.0022939e-01
  1.5290067e-02
 -3.2366231e-02
  1.7960900e-01
 -9.0222359e-02
  1.7288474e-02
 -1.4928482e-02
 -4.3528995e-01
 -8.8110436e-03
 -7.3649734e-02
 -5.5671558e-02
 -1.0534328e-01
  5.2089278e-02
  1.1564028e-02
 -1.3561859e-03
 -1.7553795e-02
  8.5779242e-03
  1.3693043e-02
 -1.0808369e-01
 -5.8300652e-02
  4.8101932e-02
 -2.8621616e-02
 -5.7327030e-03
 -3.0854130e-02
 -7.7287771e-02
 -9.4521984e-02
  5.3380383e-03
 -7.9511546e-02
 -9.1118522e-02
  1.1079270e-01
 -7.4415058e-02
 -5.1238519e-01
  5.0644867e-02
 -4.3369107e-02
 -9.2782743e-02
 -2.7693091e-03
 -5.1571228e-02
 -1.9321892e-01
 -1.1684465e-02
 -2.5549175e-02
 -2.2486822e-01
 -3.6982723e-02
  1.5582155e-02
  8.4822342e-02
  3.4876496e-02
  3.1404570e-01
  1.3951708e-01
  2.3801455e-01
  2.7541125e-01
  3.9163032e-01
  1.9138673e-02
 -2.0210634e-01
 -7.7312505e-03
  3.3794370e-02
 -7.9324812e-02
 -1.9974051e-02
  2.3754444e-02
 -1.4831094e-02
  7.6876983e-02
 -2.6058624e-02
  7.5018004e-02
 -8.5960235e-03
 -8.1519403e-02
 -7.4858400e-03
  2.0462535e-01
  9.7633764e-02
 -2.1383598e-02
 -9.9709891e-02
  1.2070611e-02
 -1.7679414e-01
 -4.7093253e-03
 -5.2349474e-03
  1.6745800e-02
  2.0986011e-02
 -2.0414542e-03
 -7.1686193e-02
  3.2286167e-02
 -4.2643771e-02
  5.4039191e-02
  3.2834621e-04
 -8.8773459e-02
 -2.0226184e-02
  3.2463871e-02
  8.7199412e-02
  4.0895421e-02
 -1.4106508e-02
  2.0930776e-02
 -1.5844525e-01
 -8.9720771e-02
 -3.7193865e-02
  1.0637135e-01
 -1.1956323e-01
 -7.9868630e-02
 -1.0662537e-02
  7.5219579e-02
  1.9201584e-01
 -8.4967427e-03
  1.0084027e-01
 -9.3702562e-02
 -1.1172126e-02
  7.0509210e-02
 -1.6464397e-02
 -1.7960262e-02
 -2.4011841e-02
 -4.7995067e-01
 -2.1568398e-01
  2.5825286e-01
  3.0846614e-01
  3.2246482e-02
 -2.3779797e-03
  5.8224630e-02
 -2.2343853e-02
  1.6076978e-02
 -1.6193652e-01
 -3.2522418e-03
  1.5641574e-02
 -6.7191571e-02
  4.6943080e-02
 -3.6072973e-02
 -3.0431303e-01
  5.1056229e-02
  9.2499621e-02
  1.6547735e-01
 -1.9367850e-01
  9.0907095e-03
  2.2353999e-02
  2.6236460e-01
  9.8938815e-02
  6.6628098e-02
 -2.5658959e-03
  2.2014083e-01
 -1.1792151e-01
 -4.8571981e-02
 -3.7235565e-02
  3.1187164e-02
  4.9140524e-02
 -1.4445909e-02
  1.8834781e-02
 -2.5276202e-01
 -1.0525042e-01
 -6.4696111e-02
 -3.0371439e-01
  9.0442486e-03
  1.0040131e-03
 -7.1069752e-03
  7.9132244e-02
 -8.3879285e-02
 -2.4171021e-02
  5.0793134e-02
  1.6807139e-01
 -1.4222950e-02
  2.6313730e-02
  2.2134379e-02
 -1.3422120e-01
  8.3967067e-02
  3.2680598e-01
  1.3692038e-01
  4.5976400e-02
 -1.0594109e-01
  3.0190265e-02
 -8.1641115e-02
  4.8737820e-02
  1.0737307e-01
  2.0253073e-01
  1.5098102e-01
 -8.6469203e-03
 -5.1217277e-02
  6.8291597e-02
 -3.5492379e-02
  1.2055348e-01
 -4.6731655e-02
 -2.1287624e-02
 -1.5539422e-02
  8.2599162e-04
 -2.3703264e-02
  5.9810385e-02
  1.1908694e-01
  5.3717587e-02
 -2.3737181e-02
  3.6675656e-01
 -4.4919167e-02
  2.8147090e-02
  3.2682963e-02
  3.8909316e-02
  2.5653364e-03
 -1.5452035e-01
 -3.7670810e-02
  6.2685944e-02
  5.3015541e-02
  2.2365436e-02
  6.5828338e-02
 -7.7224106e-02
 -8.3207965e-02
  5.9555050e-02
  8.7660234e-03
 -4.7221240e-02
  4.7498737e-02
 -4.1972529e-03
  5.2575234e-02
  5.2714860e-03
 -1.6854756e-02
 -8.9590959e-03
  4.5360379e-02
  2.8691558e-02
  9.3032725e-02
 -1.0422590e-02
  7.8770528e-03
  4.1756209e-02
 -5.6338023e-02
 -3.4800414e-02
 -7.1854785e-02
  1.3512750e-01
 -1.0214002e-02
  3.0028783e-02
 -1.0288859e-02
  6.2144361e-03
 -1.1317775e-02
 -1.6584387e-01
 -9.1130314e-03
  2.1144624e-03
 -6.0647442e-03
  2.6336869e-02
 -3.0683387e-02
 -3.7988562e-02
 -2.9657561e-02
  6.9859695e-01
 -3.7363403e-02
  5.1544528e-02
 -7.8697309e-02
  3.0312713e-02
 -3.2446384e-02
 -1.8560911e-02
  4.6904776e-03
 -5.1809363e-02
 -1.7485160e-03
  1.0673869e-02
  5.0653767e-02
 -7.3417646e-01
 -8.6541140e-01
  1.1553251e+00
 -5.9014165e-01
  2.9665032e-01
 -4.1532516e-01
  1.6930564e-01
 -1.4891352e-01
  1.3333547e+00
 -1.1929538e+00
  3.7165815e-01
  1.3560047e-02
  8.0675120e-05
 -1.3576398e-02
 -3.2570278e-03
  1.4911371e+00
  7.0754921e-01
  1.4311016e-01
 -9.1116894e-03
  3.1535339e-02
  3.6070877e-01
 -3.8436633e-03
 -1.3924574e+00
 -8.3634652e-02
  1.0444021e+00
 -1.5816605e-02
 -1.3974246e+00
  1.4560537e-01
  6.5297009e-03
  5.4290257e-02
  1.7328681e-02
 -8.8241732e-01
 -1.8695864e-01
 -8.9119762e-01
 -6.6600181e-02
 -4.5363608e-01
  4.4723392e-02
  5.0748473e-01
  2.0724170e-01
  2.6798686e-02
  2.6788265e-01
 -3.0994028e-01
 -8.9158052e-01
  8.9419916e-02
 -5.5683070e-01
  1.3260686e-02
 -7.2080493e-02
  5.8050603e-03
  9.9638533e-03
 -8.8288048e-03
 -7.0831105e-03
 -1.0427015e-01
  1.7921084e-01
 -3.6230886e-01
 -4.4665091e-02
  7.0712313e-02
 -1.2262325e-02
  4.6083458e-02
 -8.4135950e-02
  9.8189048e-02
  8.8000679e-03
  7.3451117e-02
  4.9440373e-02
 -3.3751808e-03
  5.1374488e-02
  4.8680414e-02
  4.4374187e-02
 -4.0993620e-02
  2.3896408e-03
  3.0670781e-03
 -4.4134136e-02
  3.9309122e-02
  9.8424330e-02
  2.9055248e-03
  3.1451136e-04
 -9.2451893e-02
  7.7788159e-02
 -2.3904312e-02
  6.5777101e-02
 -5.4918580e-02
  1.0300200e-01
 -8.3271209e-03
 -8.4077176e-03
 -5.3030133e-02
  1.5979417e-02
  2.6770392e-02
 -1.4160424e-02
  4.6963077e-03
 -6.2729590e-02
 -1.7508173e-02
  1.1206757e-01
  2.0097797e-01
 -3.2656153e-03
  4.8350085e-02
 -2.0807043e-02
  3.0171180e-02
 -1.9925022e-02
  4.7210153e-02
 -1.2062653e-01
 -5.2479722e-02
 -9.6460527e-01
 -1.0997733e-01
  1.0726632e-02
 -2.4717335e-02
  2.7388630e-03
 -6.6483997e-02
 -8.3198342e-03
  1.8908847e-02
 -4.7047589e-02
 -1.9236505e-02
 -1.3171730e-02
  8.4741101e-02
 -3.1934801e-02
 -5.6222290e-02
 -2.8797925e-02
  4.2939499e-02
  1.5713461e-03
  2.4595950e-02
 -1.0606160e-02
  1.6561809e-01
  5.3966083e-03
 -1.8539160e-02
  4.6686903e-02
  2.4071626e-02
 -1.7309798e-02
  1.6180027e-02
  2.3576029e-02
  9.4609940e-04
  7.5622395e-02
 -3.2703400e-02
 -2.5797732e-02
 -3.1246295e-02
 -8.4202476e-03
  3.7182599e-02
 -1.0405691e-02
 -5.0021280e-02
  4.3934733e-02
  3.2252491e-02
  5.8025774e-03
 -1.9152323e-02
  9.0245344e-02
  5.8679763e-02
  7.1142251e-03
 -3.3282772e-02
  4.3971464e-02
 -2.9669173e-02
  4.1853108e-02
 -4.8692566e-03
  2.4631882e-02
  1.4785191e-02
  2.7522516e-02
  1.3755264e-03
 -3.7461311e-02
  1.7667051e-02
  1.6029878e-01
  9.2304626e-04
 -1.6046729e-02
  2.4871817e-03
 -1.4936379e-01
  9.6346684e-02
  1.7469884e-03
 -2.9107350e-01
 -4.6406727e-02
 -2.2871729e-02
  2.4590164e-02
 -5.6677580e-02
 -6.7552519e-03
  1.0719541e-01
 -7.6185822e-02
  1.0074307e-01
 -1.8389562e-02
 -3.2206066e-02
  5.0058551e-03
 -7.7153035e-03
  5.1910032e-02
  4.4865739e-02
  1.4940740e-01
  2.3655763e-02
  1.3968825e-01
  7.4070878e-04
 -1.5020190e-02
  4.3696411e-02
  2.3990909e-02
  3.3717617e-02
  6.0691456e-03
  2.7967196e-02
 -4.1277234e-02
 -3.5384451e-03
  6.0343798e-03
 -1.0634307e-02
 -1.2614726e-01
  2.5049645e-01
  1.5661786e-01
  3.0442537e-03
  2.0995563e-02
 -9.7928625e-03
  2.5891953e-03
 -7.2544761e-02
  5.9244361e-02
 -1.3083115e-01
 -3.4458227e-02
 -3.8062338e-02
  6.1251372e-02
 -9.3821744e-03
  7.8511193e-02
 -2.4552677e-02
 -1.4929739e-01
  1.1582321e-02
 -6.3864738e-03
 -6.3261308e-02
 -2.4065239e-02
 -3.4552567e-02
  1.0981175e-01
  1.8960616e-02
 -3.6493804e-02
  1.4557543e-01
  3.8347818e-02
  4.8328592e-03
  6.9036230e-02
 -1.0138518e-02
  2.1091443e-02
 -1.5225759e-02
  1.3911697e-02
 -5.4338880e-02
  3.2923765e-02
 -1.3956768e-02
 -1.2879651e-02
 -4.6047077e-02
  5.7485096e-02
 -1.0044615e-01
  6.4874114e-03
 -4.2632900e-02
  1.7271031e-02
  1.0990356e+00
 -1.5259508e-02
  9.8997690e-02
  2.7061174e-02
  3.6282477e-03
  1.7267434e-02
  6.6228891e-03
 -1.0486595e-02
  9.1250598e-02
  2.0088166e-02
  1.1915507e-02
  1.7227802e-02
 -9.0161368e-02
 -1.7954705e-02
  1.2552358e-01
  6.5371044e-02
  5.4379506e-03
  1.7103933e-02
  5.9035152e-02
  2.4854204e-02
 -2.7456852e-02
 -8.2219146e-02
 -5.6385066e-02
 -9.2570111e-02
  3.9402656e-02
 -3.1438444e-02
  1.1354811e-01
  1.2427879e-02
 -4.2820614e-02
  3.1048171e-03
 -1.6727915e-02
 -3.5706505e-02
  2.8160936e-01
 -1.8732609e-02
  2.2920119e-02
 -1.1398386e-01
 -9.7473953e-03
  3.1828362e-02
  1.8221922e-02
 -5.1067762e-02
 -4.9889676e-02
 -1.1445047e-01
 -7.3053460e-03
 -1.2653860e-02
 -2.7504206e-02
  3.7831817e-02
  1.4287682e-01
 -9.5510863e-02
 -7.4718863e-02
 -1.3043694e-02
  3.6259562e-02
  1.0683402e-02
  7.7357046e-02
  1.5901719e-01
  3.8548637e-02
 -5.6825881e-03
 -6.6716815e-03
  4.4877045e-02
 -6.5306434e-03
  4.2404011e-02
  8.4196562e-03
  4.7420468e-02
 -5.3937376e-02
 -8.4041163e-02
  2.5416628e-01
 -4.4888280e-02
 -1.1217867e-02
 -5.2516218e-02
  5.6107696e-02
 -7.3427863e-02
  2.8643029e-02
 -3.0815182e-03
  5.3125814e-02
 -5.4195963e-02
  3.0426066e-02
 -8.3914690e-02
 -1.3806073e-02
 -4.9472719e-02
  6.0147182e-03
 -2.9534969e-02
  6.3596256e-02
 -1.3444064e-02
  7.6183431e-02
  4.3358680e-02
 -1.8793445e-02
 -4.5099888e-02
  9.6712716e-02
  3.8568944e-02
 -3.0221287e-02
 -5.6741625e-02
 -4.8606902e-02
 -6.3667193e-02
 -1.1297571e-03
  4.0410291e-02
 -1.0407567e-02
 -1.4448528e-02
  2.5339540e-02
  4.6847336e-02
 -3.0137740e-02
 -4.4661351e-02
 -2.1585975e-02
 -8.6509716e-03
 -2.7006345e-03
  6.7685314e-02
 -1.9791141e-02
  2.6466735e-02
  3.1341162e-02
 -5.0364505e-03
  1.2854040e-01
  5.0361071e-02
 -5.1322961e-03
 -2.7163712e-02
  9.3753710e-03
  3.6105067e-01
  8.4764220e-02
  1.0123844e+00
 -4.2906103e-01
 -1.3312223e+00
 -4.2777736e-02
  1.1021422e-01
  2.4970908e-02
 -7.0281690e-01
  1.3064860e+00
  6.8078697e-02
  3.8205218e-03
 -2.1590506e-01
 -9.5514931e-02
  2.4300266e-02
  1.2470771e-01
  1.8061412e-02
  5.9852934e-01
 -3.1634569e-02
  3.7818320e-02
  4.2361122e-02
  2.4206156e-02
 -5.9164282e-02
 -1.2468509e-02
  3.0050686e-01
  1.4009154e-01
  2.9961440e-01
  3.7786707e-01
  4.5009032e-01
 -1.0397349e-02
 -1.0597783e-01
  1.8071396e-02
  4.1177068e-02
 -5.8631979e-02
 -1.3829285e-02
 -3.0558303e-01
 -8.0985483e-03
 -1.5258506e-01
 -3.3093631e-02
  3.9101884e-01
 -1.4981814e-01
 -5.9825936e-03
 -4.5417652e-02
 -1.3126551e-01
 -2.4490755e-02
 -1.6632077e-01
 -1.5404355e-02
  6.5218851e-02
 -4.7191657e-02
 -7.1859509e-02
  2.6253931e-02
  2.0066802e-01
 -1.2524031e-02
 -1.2960586e-02
 -3.2655761e-02
  9.8007349e-03
  4.6599115e-04
 -6.3679375e-02
 -3.5607424e-01
  9.7640425e-02
 -6.2424010e-01
 -8.1558591e-01
  1.3790944e+00
  2.3019618e-01
 -1.6707717e+00
  2.9732700e-02
  1.1600846e-01
 -3.1695340e-02
 -2.4472480e-01
  8.7114674e-01
 -2.6679817e-01
  5.6102155e-03
 -2.7166372e-03
 -4.4181990e-03
  8.9874111e-02
  2.3728627e-01
  9.6824169e-02
  2.8579387e-01
  2.0187087e-02
 -2.2326410e-02
 -6.6863135e-02
 -9.8202527e-03
 -1.6197053e-01
  5.9551407e-02
 -6.2897287e-02
  2.9162592e-01
 -2.6027612e-02
  5.1245969e-03
  1.4696184e-02
  4.6821274e-03
 -3.6179721e-02
  3.8684210e-01
 -1.4395058e-01
 -5.0826423e-02
  6.8840452e-02
  7.5023270e-01
 -7.2994992e-02
 -3.9217748e-02
  2.1369952e-01
  5.1496003e-02
  1.9464885e-01
 -1.1618269e-02
  2.8965035e-01
 -2.4858927e-03
  1.9651368e-01
  1.0574987e-02
  1.1766590e-02
  7.6310746e-02
  4.6649750e-02
 -4.0341292e-02
 -2.4144387e-02
 -4.1853076e-01
 -1.9591357e-01
  3.8016263e-01
  4.6502508e-02
 -2.0512109e-01
  2.1152157e-02
 -9.5040113e-02
  4.1492090e-02
 -5.1454548e-02
 -4.1588112e-03
  2.7954236e-02
  4.1917451e-03
  3.0373040e-01
  5.0779019e-02
  2.1257622e-02
  6.7681067e-02
  9.2894174e-02
  1.2530574e-01
 -3.6875197e-01
  5.1573332e-02
  1.2887686e-02
  1.1333399e-01
 -5.3716474e-05
 -6.2690154e-03
  2.7168505e-02
 -5.0413460e-03
  1.3635227e-02
 -5.4965973e-02
  1.6116563e-02
  5.9872530e-03
 -8.4317222e-02
  1.7649073e-02
  4.0958516e-02
 -1.2086052e-01
 -5.7710525e-02
 -1.1733921e-03
 -4.2741578e-02
  4.8858719e-03
  1.2287714e-01
  8.9522288e-04
  1.1423943e-02
  1.5611215e-02
 -1.5665260e-01
 -4.6133682e-02
 -6.8373419e-02
 -1.0382471e-02
 -1.6209424e-02
  2.2722653e-01
 -1.3589913e-02
  4.4448122e-02
  2.9414846e-02
  1.3298123e-01
  7.6913303e-03
  1.7009689e-02
 -6.3539468e-02
  1.1669656e-01
 -3.1474166e-02
  1.6157668e-02
  1.4205589e-02
  1.2850614e-02
 -6.9483137e-03
  2.5671059e-02
 -1.6657025e-02
  3.7690431e-02
 -3.1821184e-02
  2.2612092e-01
  6.2039632e-02
 -3.3712104e-01
  2.0451471e-01
 -3.4732857e-01
  1.1753247e-02
 -3.5104564e-01
 -1.3816057e-01
 -5.6559101e-02
 -4.1667387e-02
  1.3851085e-01
  2.6859167e-01
  4.7582943e-02
  1.8938127e-01
 -1.2833574e-01
  3.6377257e-01
 -9.2121191e-02
  6.1753988e-01
  4.3647923e-02
  5.1765662e-02
  3.8925686e-03
  4.0030852e-02
 -6.5015450e-02
  1.2471516e-02
 -1.4589347e-01
  7.1448988e-01
 -1.7204782e-02
  8.3997577e-02
 -1.1976932e-01
  2.2644863e-01
 -2.0296939e-02
 -1.6392758e-02
 -1.3990100e-01
 -4.5724773e-01
 -1.6106468e-03
  1.7784920e-01
 -9.2071751e-03
  1.1022982e-01
  4.0161658e-02
  6.4359426e-02
 -8.5502667e-03
 -4.6281245e-02
  4.1466925e-02
 -5.8857247e-02
  1.5184619e-01
 -9.5671490e-03
 -6.4700216e-02
  1.4034335e-01
  1.7548077e-02
 -2.4934731e-02
 -1.3829248e-02
  2.3107156e-02
  1.4096887e-01
  1.7458502e-02
  9.9345140e-02
  5.3687561e-03
 -6.5380156e-02
  1.6161887e-02
  1.9007967e+00
 -1.8879564e+00
  1.2755182e+00
 -6.0278255e-02
 -6.8650305e-01
 -1.0144895e-01
 -2.0256269e-01
 -1.3691208e+00
 -6.4395326e-01
 -6.3611996e-01
  7.7514505e-01
  4.6778731e-03
 -1.0455754e-02
 -1.2379802e+00
  2.2760201e-01
 -1.5619725e+00
  1.9485222e-01
  6.9226096e-03
  2.4507910e-02
 -2.6009330e-01
  2.5325453e-01
  3.3701933e-04
 -1.2072275e+00
  1.8922716e-01
  1.1244801e-02
 -1.0261228e-02
  9.5002466e-01
 -6.3434690e-02
 -4.0418927e-02
 -8.3991289e-03
 -3.2110907e-02
 -1.3537593e-01
  3.5992794e-02
  6.7635643e-01
 -7.4951243e-01
  1.3616140e+00
  2.8830769e-02
  5.3712565e-02
 -8.9529485e-02
  1.6337665e-02
  3.4352586e-01
 -2.4461957e-02
  8.1046653e-01
  5.1112056e-01
  6.9329244e-01
  2.4682665e-03
  2.9186991e-01
 -2.4411378e-02
 -7.7355720e-02
  2.5227162e-01
  1.7963134e-01
 -3.6821768e-02
  1.5782689e-01
 -1.0154174e-01
 -5.8909133e-02
 -3.6047328e-02
  3.6346543e-01
 -4.5779891e-02
 -1.1164685e+00
  8.9368325e-01
  4.1892740e-01
 -1.2442466e+00
  7.8140652e-01
 -6.4735651e-02
  5.8829409e-01
 -3.8879552e-01
 -1.1173603e-01
  1.1581052e-01
 -2.8487945e-01
  7.0108360e-01
 -4.3787092e-02
  1.6471197e-01
 -5.0465740e-02
 -8.5505503e-01
 -5.4204915e-02
 -9.1733046e-02
 -4.2308355e-03
  1.7399742e-01
  4.8493481e-01
  5.9321031e-02
  6.6565210e-01
 -2.7295496e-02
  7.1835518e-01
 -2.7824191e-02
  4.0842012e-02
  1.0490900e-02
 -3.5116166e-02
  2.0653589e-01
  7.4267335e-02
  5.6041729e-01
 -1.5582007e-01
 -3.1571567e-02
  4.5226431e-01
  6.1124638e-02
 -1.2280910e-02
  3.3566678e-01
  1.6643083e-02
 -8.1352137e-02
 -4.8434872e-02
 -8.3444372e-02
 -2.4662314e-01
  4.5171570e-02
  1.2586112e-01
  1.4318034e-02
 -6.4207748e-02
  4.0551451e-01
  5.7311963e-02
 -9.0001382e-02
 -4.1649660e-01
 -8.1984520e-02
 -3.8196281e-01
  5.7791179e-01
 -7.4029967e-02
  1.0254874e-01
 -1.2637817e-02
 -7.7163793e-02
  1.2511884e-01
 -4.2625234e-02
 -2.4467039e-01
 -2.9000463e-03
  3.9679572e-02
 -1.1985338e-01
 -3.8557936e-02
  1.3208775e-02
 -3.7107278e-02
 -6.2226500e-02
 -5.8927974e-03
 -1.0483921e-02
 -4.3355189e-03
 -6.9204317e-03
 -1.1862209e-01
  2.3227702e-03
 -1.8451980e-03
  4.4524815e-02
  3.4817830e-03
 -5.0324231e-02
  8.5513733e-02
  2.1725785e-02
 -9.5892087e-02
  8.4206555e-03
 -2.4038726e-02
 -4.4597769e-03
 -6.4112678e-02
  1.4379811e-02
  9.4202748e-03
 -2.6974762e-02
 -5.2658985e-03
 -4.9383860e-02
 -1.3080095e-01
 -1.7950233e-02
 -5.0155997e-02
  5.2411225e-02
 -8.0534130e-02
 -2.5279362e-02
  1.3461398e-01
 -1.7815677e-02
 -3.3107080e-02
 -2.8924182e-02
 -1.6201647e-01
 -1.2926063e-02
 -1.0352705e-01
  6.9356799e-02
 -6.8973549e-02
  5.1934842e-02
 -1.5525100e-01
  4.2507693e-02
  7.7675402e-02
  5.6135342e-02
 -5.5762529e-02
  5.4609116e-02
 -4.7555666e-02
  5.8588009e-02
 -2.6673866e-02
 -1.2894562e-01
  1.8036705e-03
 -1.5048283e-01
  7.6639876e-02
  4.2388164e-02
 -8.8591436e-03
  4.3356325e-02
 -1.0055427e-02
 -9.3661733e-03
  8.3646707e-02
  8.1998529e-03
  1.9870533e-03
  1.1771765e-02
  4.1745789e-02
  5.5831306e-02
 -1.4394875e-02
  1.2400018e-02
  8.7603904e-02
  6.3485582e-03
  5.0273772e-02
 -7.5445242e-02
  1.0081634e-01
 -4.2355150e-02
  1.4457867e-01
  4.0300880e-03
 -2.4331715e-02
 -4.2276238e-03
  9.6913446e-03
 -2.4777081e-02
 -6.2538505e-02
  1.0497836e-01
  4.4768009e-02
  1.2850055e-02
 -1.6823433e-02
 -7.2243124e-02
  3.7782468e-02
 -8.7060280e-02
 -2.7729687e-03
  3.1356730e-02
 -1.5671436e-02
  3.5201788e-02
 -2.4639715e-03
  1.3873769e-02
 -1.0386412e-01
  1.2323858e-02
 -3.8931511e-02
 -6.8980418e-02
  7.0313946e-03
 -2.1795837e-02
  8.6024823e-03
  5.0407954e-02
 -2.0461997e-02
  1.5374687e-02
  1.1589040e-01
  6.6461235e-02
  4.6327379e-02
  5.7470623e-02
  2.2078212e-02
  3.7474521e-03
  6.0722297e-03
  4.7786208e-03
  5.8814123e-02
 -5.5272527e-02
 -5.6387447e-02
  6.2134294e-03
 -6.3662618e-02
  2.2762327e-02
  2.6424241e-03
  1.6672175e-02
 -3.6950868e-03
  1.4287844e-01
 -1.6112125e-03
  7.4712369e-03
 -7.0272908e-02
  4.5279909e-02
  2.4105666e-02
  1.2524794e-01
  5.6270424e-02
 -2.5666583e-02
  5.8416758e-02
  2.0817330e-02
 -3.2677963e-02
 -1.6111314e-01
 -1.1393484e-01
 -1.8487655e-01
 -1.0940518e-01
  2.0004739e-04
 -1.8230787e-01
  2.5271671e-03
  3.4829482e-02
  1.4506407e-01
 -5.7645064e-02
 -3.7492663e-01
 -7.5222313e-02
 -3.9065916e-02
 -7.4782021e-02
  3.0598593e-01
  9.5427573e-02
  3.2915220e-02
 -2.5231585e-02
 -9.8169014e-02
 -3.6186478e-01
  4.2199600e-02
 -4.5402446e-03
 -7.6064793e-03
 -2.7739065e-02
  4.1842546e-02
 -4.3560557e-02
 -2.8960113e-03
 -2.0106180e-02
  3.1643651e-02
  2.4168282e-03
 -9.6352752e-03
  3.1671744e-02
  3.1018088e-02
 -2.5812706e-01
 -5.7767564e-03
 -2.8020411e+00
  1.7306108e+00
  2.3970151e+00
 -3.4774758e-02
 -4.8849893e-01
 -1.3888802e-01
  1.1643865e+00
  1.1333646e+00
 -1.2918732e-01
  1.8072518e+00
 -4.3452793e-01
  6.1026484e-02
 -6.8761349e-02
  6.8244588e-01
 -7.3879570e-02
  7.6576728e-01
 -1.1970242e-01
  3.2127756e-01
 -4.6909142e-02
 -1.7074148e-01
  1.4141251e-02
 -1.1347683e-01
  6.0088605e-01
 -4.2097214e-01
  3.0349007e-01
 -6.0956943e-01
 -9.6233779e-01
  5.5568819e-03
  5.1185358e-02
  2.1796906e-01
  4.5608781e-02
  3.5154411e-01
  4.5713305e-02
 -4.8423130e-02
 -4.6131787e-01
 -1.2613109e+00
 -1.8059264e-01
  2.3844909e-02
 -2.9711094e-02
  7.8286484e-02
 -1.1020256e+00
 -4.2675519e-01
 -4.0869492e-01
  8.3847567e-02
 -2.5975078e-02
  5.9269395e-02
 -5.7944031e-03
  5.5102035e-03
  4.7970176e-02
  2.0964007e-01
 -2.1593438e-02
  3.3253852e-01
 -1.3137233e-01
  1.1495075e-03
  3.2280304e-02
  7.1338839e-03
 -4.8156336e-02
 -8.1011586e-02
 -3.1191520e-02
 -2.8636090e-02
  3.2893736e-02
 -1.0350879e-02
 -3.8626203e-03
  1.6117983e-02
 -9.6673988e-02
 -8.6642923e-03
 -6.1696284e-03
 -3.0133178e-02
  1.0624807e-04
  3.4018140e-03
 -5.5251326e-02
 -5.8565784e-02
  3.2771239e-04
 -4.8882559e-02
  1.8033139e-02
 -7.5325742e-04
 -5.3842545e-02
 -6.7579471e-02
 -2.0123158e-02
 -5.5110449e-01
  2.7072262e-02
  1.5957640e-03
 -1.1840847e-02
  1.1837794e-01
  3.7114888e-01
 -9.1403954e-02
  2.3975257e-02
  1.3732522e-02
 -1.1632832e-02
  1.6016494e-02
  8.1963670e-03
  1.4587149e-01
 -1.6746952e-03
 -1.9004341e-02
 -7.2807455e-03
 -4.0271091e-03
 -3.2665620e-03
  5.8266554e-02
 -1.9554505e-01
 -3.8638012e-03
  3.8218861e-03
 -1.7677184e-02
  6.0427587e-02
 -2.0841346e-03
  4.2838849e-02
 -9.9624000e-02
  1.5099007e-01
  2.7059041e-02
 -3.0419473e-03
 -2.6214562e-02
 -6.5092005e-02
 -1.5830074e-02
 -4.0933326e-02
  4.1824967e-02
  4.2561525e-01
 -5.8993071e-02
  5.2719963e-01
 -1.7349254e-01
  1.4336467e+00
  1.7841717e-02
 -6.9472444e-01
  7.2974706e-01
  1.0666717e-02
  4.0900826e-01
  1.2069774e+00
 -3.1689291e-03
 -5.2971786e-01
  3.6180437e-02
 -1.9705584e-02
  5.0743097e-01
  1.1127303e-02
  7.1104026e-01
 -2.1191275e-01
  2.4658369e-01
 -2.7456202e-03
  4.0423263e-02
 -2.6512325e-01
  4.0512510e-02
  5.9073812e-01
 -1.0093345e-01
 -3.1490031e-01
 -5.3306985e-01
 -2.5685385e-01
  2.0580415e-02
  8.8159241e-02
 -8.3103752e-01
  1.0492645e-02
  6.6212982e-02
  9.4577055e-03
 -1.7501810e+00
 -5.0111932e-01
 -1.1367039e-01
  1.6966639e-01
 -6.1720473e-01
  2.7125672e-02
  7.3070372e-03
 -5.6192726e-01
  5.2341772e-03
 -9.2924720e-01
  1.8250630e-03
 -1.3975156e-02
 -2.9935835e-02
  6.2755443e-02
 -1.6873209e-01
  6.3190572e-02
 -8.5538201e-02
  5.1653332e-01
 -2.8608155e-02
 -7.3418908e-02
  3.0444926e-02
 -2.6380796e-02
  1.5612534e-02
  9.2434689e-02
  1.2340255e-02
  1.7000785e-02
  3.6746070e-02
 -2.6493959e-02
  1.2879593e-02
 -9.9447193e-03
 -8.4215261e-02
  3.2130394e-02
 -4.4506185e-02
  2.2510407e-02
  3.9910749e-03
 -6.1117135e-02
  9.0733849e-02
  4.5388836e-02
 -6.9846679e-03
 -2.1662962e-02
 -8.3050258e-02
 -3.0517774e-02
 -7.5821958e-02
  7.6800935e-02
 -1.6193047e-02
 -9.3712071e-03
  4.5398626e-02
  2.6842175e-02
  3.5684649e-03
  1.9057876e-01
  2.6129998e-02
 -2.3770422e-02
 -4.6075173e-02
  6.9104470e-02
  8.4409237e-02
 -7.6854929e-02
  7.6193810e-03
  3.0458173e-02
 -8.4846430e-02
  2.0447918e-03
  6.0633406e-02
 -6.7169644e-02
 -2.9368952e-02
  4.3700725e-02
 -1.4413288e-02
 -3.6556996e-02
  5.1298548e-02
  5.4710783e-02
 -2.8806534e-02
 -1.6160002e-02
 -5.6221064e-02
 -1.3717241e-03
  1.1729159e-01
  8.9959092e-03
 -9.2929453e-03
  4.4806480e-02
  3.0020785e-02
  6.4321831e-02
  2.7284499e-02
  3.4586778e-03
  5.9285205e-02
 -9.4579803e-03
  7.5638600e-02
 -5.0714654e-03
  1.0521659e-02
  2.4669036e-02
 -5.1237237e-02
  1.7522007e-02
  3.5525016e-02
 -4.0785819e-02
  9.8841581e-03
  2.2799170e-03
  2.5815897e-02
  1.9021221e-02
 -3.0058250e-04
  6.0680099e-02
 -3.6369707e-02
 -2.4602714e-03
 -1.1667983e-02
  4.8122145e-03
  3.9983932e-02
  3.3303123e-02
  6.3662373e-02
 -8.0166440e-03
  2.4008140e-02
 -9.9756993e-02
 -7.8208305e-02
 -4.1276574e-02
  3.1823465e-03
  9.1028020e-02
 -2.8747562e-02
  8.0833398e-03
 -1.2325285e-01
 -3.0119684e-02
  4.3006320e-02
 -4.4022635e-02
 -1.6897024e-01
  2.9108489e-02
 -3.6745861e-02
 -9.7663812e-02
  1.0562507e-02
 -2.1228930e-02
  2.6907304e-02
  2.6082243e-03
 -1.0335991e-02
 -1.3706303e-02
  9.0663591e-03
 -1.1019343e-02
 -5.5883499e-03
  2.6056771e-03
  1.9214142e-03
 -2.3590490e-02
  1.7305752e-02
  1.6863275e-02
 -1.0792645e-02
  9.0162233e-02
  3.0548375e-02
  1.9108858e-02
  5.9653014e-02
  2.2077188e-02
  1.5572031e-03
 -1.4327727e-03
 -4.8372172e-02
 -4.2123687e-02
  1.0137513e-02
 -1.2296152e-01
  7.6983185e-03
  5.2127950e-02
 -6.1522577e-02
 -2.5403738e-02
  5.3435005e-02
  2.4892287e-02
  5.0337330e-02
 -1.2788555e-02
 -1.6314186e-01
  1.1258053e-02
  2.5137195e-02
  3.4033787e-02
  1.7049914e-02
 -1.2045226e-02
  9.4193175e-02
  1.9337581e-03
  3.4789313e-02
 -5.2624699e-02
  2.5689200e-02
 -1.9777356e-02
  1.4161166e-02
 -4.5754127e-02
 -2.6055997e-02
  2.3702703e-02
  5.2529043e-03
 -7.5425409e-02
 -1.9895379e-01
 -7.2506160e-02
  4.4715583e-02
 -6.4618610e-02
  1.4056283e-02
  3.6879666e-02
 -8.1652083e-02
  2.6420480e-02
  8.4313154e-03
 -6.1022833e-02
 -2.0856098e-03
  2.7494576e-02
 -1.0809415e-01
 -1.6523261e-02
  1.5452554e-02
 -1.8915186e-02
 -5.5554476e-02
  1.3901787e-02
 -8.1832558e-02
  3.4229006e-03
 -6.8506226e-02
  1.5480058e-02
  1.0808191e-01
  4.9781773e-02
 -1.0250714e-02
  7.1577549e-02
 -9.6142270e-02
  2.3630647e-02
 -4.1075707e-03
 -5.1063619e-04
  7.2772253e-01
 -4.3028828e-02
 -1.8582004e-01
 -4.1516396e-01
  1.0707375e-03
 -8.2668424e-02
 -3.7906416e-02
 -1.1319432e-01
  5.2725244e-02
  2.3789899e-02
  5.3809837e-02
 -7.8438651e-03
 -1.4857808e-02
  2.2901534e-01
  1.6910145e-01
  1.6455095e-02
 -2.3345556e-02
 -4.9034946e-02
  6.9527760e-02
  4.5284709e-01
 -1.1536951e-01
  2.3867045e-02
 -9.6422456e-02
  1.0624886e-02
  7.8948103e-02
 -1.3041446e-01
  3.4854610e-02
  1.2039026e-02
 -1.1500124e-02
 -4.6518710e-02
 -2.6920510e-02
  7.2811395e-02
 -2.1381605e-02
  3.4005653e-02
  6.5282598e-02
  2.8405750e-01
 -4.0614262e-02
 -3.2020610e-02
 -2.4875009e-01
 -1.5642104e-01
  1.7884776e-02
 -5.7140493e-01
  7.3177494e-02
 -2.1018969e-02
  2.0641379e-02
 -5.6571909e-04
 -5.0419666e-02
 -1.4191701e-01
 -7.2712358e-03
  1.2623203e-01
 -6.9722369e-02
  2.9841661e-02
  2.0035848e-01
  1.6873628e-02
  3.0588321e-02
  5.0571658e-02
 -4.6672486e-02
  1.4081910e-02
  1.5337870e-02
 -1.0996574e-01
  4.5308948e-02
  3.6113262e-02
 -3.2645367e-02
  9.4423853e-02
  1.5468556e-02
  1.0857931e-02
 -3.6637135e-02
 -2.0014284e-02
  4.6850340e-03
  6.1437741e-02
  9.9037044e-02
  5.3056829e-02
  1.8660540e-02
  8.7467581e-03
 -2.1951681e-02
  2.1598509e-02
 -4.0957168e-02
  7.1656734e-02
 -4.2021405e-03
 -8.6989671e-02
  2.6793277e-02
  2.7831141e-03
 -3.0204754e-02
 -1.4368247e-02
 -3.0399539e-02
 -8.0506019e-03
 -3.8245097e-02
 -4.3319564e-02
 -3.0016815e-02
 -2.1921029e-02
 -2.3932107e-02
 -3.4326151e-02
 -4.1246772e-02
 -1.8414611e-02
 -2.9551473e-02
  2.9636651e-02
 -7.1274221e-02
 -6.6411449e-03
 -4.0762895e-03
 -1.3577588e-02
 -2.0986576e-02
  1.2704521e-01
  3.1808928e-02
  1.3116808e-02
 -4.7509912e-03
  4.1083440e-02
 -8.6896159e-03
 -6.1606511e-02
 -1.4720243e-02
 -3.2310724e-02
  3.6614601e-02
 -2.4884461e-01
  9.5076844e-02
  5.9755659e-01
 -8.6541706e-01
  3.0168811e-02
  8.5260859e-03
 -1.9036427e-01
  1.9068621e-01
  5.3443086e-01
  2.9728675e-01
  1.1606112e+00
 -2.0302249e-01
  4.4407168e-01
 -3.5549814e-01
 -2.8593842e-02
 -9.4281428e-02
 -8.9586876e-02
 -1.8844342e-01
 -1.6102566e-01
 -8.0354995e-01
 -1.3898870e-01
 -4.2445508e-01
  1.5576194e-01
 -1.0761967e-02
 -8.4586903e-02
  6.2916744e-01
 -3.1979853e-01
 -3.9050734e-01
  6.2001556e-01
 -5.4079924e-02
  2.5530446e-01
 -3.1957190e-02
  2.6174510e-02
 -1.3351603e+00
  9.9576080e-01
  6.3238966e-01
 -1.7645303e-02
  3.3726862e-01
  1.8887387e-01
 -4.2427826e-01
  1.3201733e-02
  5.6534387e-02
 -1.7042439e-02
  4.9351925e-01
  3.8823381e-01
 -5.7561141e-01
 -1.4347921e-01
 -3.8265213e-02
  1.4633448e-01
 -2.8483799e-02
 -3.4693696e-02
 -4.5150018e-01
  4.3918923e-02
  2.0363975e-02
 -1.8238397e-01
 -3.7026215e-02
 -1.4152442e-01
 -6.1992370e-03
  1.5476244e-02
  3.8479380e-03
  8.4749304e-02
 -2.1330422e-02
 -8.7981582e-02
  8.9371771e-02
 -5.7337046e-02
 -9.9942625e-02
 -6.1433263e-02
 -1.2097912e-01
 -2.0816216e-02
 -8.8509373e-02
  6.9172457e-03
 -6.4287428e-03
 -2.3722760e-03
 -2.5450820e-02
 -1.6854201e-02
  5.6513641e-02
 -4.0619252e-03
 -1.7969161e-03
 -1.8876707e-02
  1.2040692e-02
  5.4079364e-03
  6.0619086e-02
 -6.9972598e-03
  9.8708067e-03
  4.4438180e-02
  3.1995770e-02
  2.6854245e-02
  8.9058347e-02
 -9.8738827e-02
  6.6133007e-02
  6.7863390e-02
  1.7414812e-02
 -8.6634055e-02
 -5.1669430e-02
  1.1262905e-02
  1.6361773e-01
  1.9117752e-02
  4.4204842e-02
 -5.3126872e-02
  2.8746163e-02
 -7.5127147e-03
  2.9372316e-02
  1.5106610e-02
 -8.1881061e-03
 -2.5400385e-01
  5.5165924e-02
 -7.4084707e-02
 -2.1456885e-03
 -4.5840856e-02
  9.3307085e-02
 -4.0224522e-02
  9.0160973e-02
  2.6618186e-02
 -2.0273495e-02
  1.0015260e-01
  1.1187418e-01
  2.4515737e-02
  1.3811706e-02
  5.3096946e-02
  8.4969424e-02
 -9.9182762e-03
  2.2705853e-02
 -3.0921066e-02
  8.1963934e-02
 -5.8567718e-02
 -5.1053941e-02
 -5.6511808e-02
  4.9567360e-02
  3.8264062e-02
  1.2544213e-02
 -4.7313366e-02
 -9.3092352e-02
  4.4255232e-04
  6.6280579e-03
  1.3032834e-02
  4.3569233e-02
 -6.2616915e-03
 -4.8590001e-02
  7.2881065e-02
  1.5499435e-02
 -6.6974685e-02
  8.3499692e-02
 -6.4580888e-02
 -1.4319140e-02
 -1.4342446e-02
  2.0700900e-02
 -2.7312955e-03
 -2.6187286e-02
 -1.3421003e-02
 -5.4958840e-03
 -1.8775072e-02
  2.5113815e-02
  1.2747636e-03
  1.8416069e-02
 -5.7115965e-03
 -4.9948199e-03
  1.9372402e-02
 -3.8282026e-02
 -1.7971505e-01
  1.3865457e-02
  3.3097684e-02
  7.8342259e-02
 -1.1901015e-02
  1.4426889e-02
 -8.9959670e-03
 -1.4372207e-01
  9.4227232e-03
 -1.3946050e-02
 -5.1650003e-02
 -7.4257202e-02
  4.6630889e-02
 -2.7240563e-02
 -9.6050441e-02
 -8.6636409e-02
  2.9054788e-01
  3.3769529e-02
  6.6925061e-01
  1.6520269e-02
 -6.4060253e-01
  1.5136715e-02
 -1.6430478e-01
 -4.4634350e-02
 -3.8969132e-01
  3.4083864e-01
  8.5188940e-02
  5.6507736e-02
  7.0104464e-03
  6.5837294e-02
  1.2978388e-01
 -5.7983909e-02
 -6.5297843e-03
  6.1049368e-02
 -1.1940862e-02
  4.8351943e-02
  2.8309979e-02
  4.3674450e-02
  7.1248375e-02
 -5.6939431e-02
 -4.4894572e-02
  1.8493950e-01
  1.8390341e-01
  1.4366151e-01
  2.3694961e-01
  2.7390948e-02
 -1.0893752e-01
 -4.9525224e-02
  3.5252389e-02
 -4.3521935e-01
 -1.7191023e-01
  8.4034365e-01
  8.2987435e-02
  7.9709411e-01
 -1.0371331e-02
  1.0358138e-01
  5.3764109e-02
 -1.7584203e-02
  7.6603517e-02
 -2.7821191e-02
  4.4118869e-01
  7.5160690e-02
  1.1558650e-01
  7.1170159e-02
 -1.5673097e-02
  2.9949170e-02
  4.2367175e-02
 -5.7506882e-02
 -5.7470175e-03
 -9.8570533e-02
 -1.9913157e-02
  5.0715588e-02
  1.3492701e-02
  3.1732094e-01
 -2.9309895e-02
  9.7208843e-02
 -7.4146912e-02
  2.7983638e-02
 -9.6319858e-03
 -2.2470655e-02
  6.9737755e-02
  6.8446383e-02
 -8.9734755e-02
 -8.9195250e-03
  5.5987179e-02
  3.4546167e-02
  7.0545144e-02
  4.0711030e-02
 -8.1814975e-02
  3.5084523e-02
 -6.3035302e-03
 -7.6337747e-02
 -9.8069854e-02
  4.0438175e-02
  7.7907212e-02
 -7.0862524e-02
  1.8987721e-02
 -3.7721079e-02
 -3.5274206e-03
  1.0371675e-01
  2.2906361e-02
  1.7447896e-02
  5.2318186e-02
  4.2185083e-02
  3.1169888e-02
  7.9597766e-03
  3.8430121e-02
  2.5937699e-02
  1.9014699e-02
 -5.4222882e-02
  3.9417654e-02
 -7.1585490e-03
  1.0376652e-01
 -2.3670341e-03
  7.5685373e-03
 -4.3708805e-02
 -1.2364118e-02
  1.3554640e-01
 -1.0117025e-01
  1.7850647e-02
 -1.1822686e-01
 -2.3994036e-03
 -1.6141983e-02
 -1.9558685e-02
  4.1588373e-02
 -6.6003343e-03
  4.3284185e-02
  2.0172199e-02
 -1.0785536e-01
 -7.7230637e-03
  8.9109167e-03
 -1.2190066e-02
 -4.0602819e-03
  1.3083079e-01
  4.6257958e-02
 -4.0862167e-01
  5.2231450e-02
  6.5078889e-03
 -1.4102359e-01
  3.3613261e-02
  4.2455439e-02
  1.6979674e-02
 -1.4092728e-02
  8.5522048e-03
 -1.2822654e-02
 -1.0100225e-01
  1.1988098e-02
  3.5291120e-02
 -1.3935760e-01
  8.4438473e-03
 -5.2438304e-02
  1.6892917e-01
 -7.8773007e-02
 -3.5896145e-02
  7.6499237e-03
 -1.5986485e-02
 -2.8527556e-03
 -1.6948437e-02
 -2.9881043e-02
  5.8708489e-02
  6.8220191e-02
  2.7511429e-02
 -5.9764542e-02
 -5.5626266e-02
  2.6335606e-02
 -7.4552372e-02
  8.2465164e-02
 -6.9835326e-03
  6.4116500e-02
 -2.6569620e-02
 -1.1396653e-02
  7.4330024e-02
 -6.8886867e-03
 -1.0513092e-02
  6.3440785e-02
 -7.4630021e-03
 -2.7767347e-02
  1.7518665e-01
  6.6151340e-03
  1.3784445e-02
  3.2323349e-02
  1.2493991e-02
 -5.4681942e-02
 -5.3262424e-02
 -2.7074225e-02
  1.8163456e-02
 -3.9214887e-02
 -7.8101810e-03
  9.8083101e-02
  2.8667282e-02
 -2.8567612e-02
  1.1137546e-02
  9.0441428e-02
 -7.0385285e-02
  2.8158395e-02
  6.1012134e-02
 -1.8969527e-02
 -1.5764991e-02
  8.2412854e-02
 -6.7049444e-02
  3.8567789e-02
 -9.5343720e-03
 -3.6932230e-02
  7.7553146e-02
  3.1215670e-02
 -2.6995769e-02
  4.4182751e-02
 -1.1174189e-01
 -6.4707339e-02
 -9.5511816e-02
  2.9169472e-02
  7.6560870e-02
  2.5234763e-03
 -9.6531264e-02
  1.7021641e-02
  4.9044929e-02
  1.3980688e-01
 -1.8037029e-02
 -5.3850837e-02
 -2.2662161e-02
 -6.1919805e-02
  6.2496081e-02
  1.1506010e-03
  1.4505311e-02
 -2.4810759e-02
 -5.2294552e-02
  1.6337175e-02
  4.8680928e-02
 -2.1853164e-02
  7.6332249e-02
 -1.5633659e-02
 -1.0062311e-02
 -8.8345082e-03
 -2.6919445e-02
  1.2578839e-01
  2.5190925e-02
 -7.4528158e-03
 -1.0091485e-02
  7.4367463e-03
 -1.0747846e-02
  1.2659467e-02
  1.1090066e-02
 -1.0341646e-02
 -1.1750095e-01
 -5.1569450e-03
  6.5659307e-02
  3.4574036e-02
 -2.1334668e-04
  4.9184691e-02
 -1.9333530e-02
  5.1013611e-02
 -2.8462372e+00
  2.1411977e+00
 -1.1324799e+00
  8.4883742e-02
 -1.2917872e-01
 -2.1688809e+00
  6.3191390e-01
  3.1824830e-01
  6.7208946e-02
  1.8468796e-01
 -9.0949044e-02
 -2.5650419e-02
 -7.6210195e-01
 -8.1927389e-02
  6.6933885e-02
  5.6507450e-02
  2.1249335e-02
  6.0473610e-02
 -7.4004024e-02
  1.6033010e-01
 -6.1241444e-03
 -3.4103182e-01
 -1.4363723e-01
 -8.0473739e-01
  5.7842755e-01
  6.3054323e-01
  6.4563669e-02
 -4.8565030e-01
  2.1082958e-02
  1.4172687e-02
 -3.9395347e-01
 -1.7300493e-01
  4.9206465e-01
 -8.1641739e-03
  7.7276957e-01
 -1.0367781e-02
  6.2995553e-01
  1.1600131e-01
 -4.5557719e-02
 -9.0978694e-01
  5.3992629e-01
 -2.5407550e-01
  3.3265111e-01
  9.2585146e-01
  1.7428238e-02
 -2.0466076e-01
 -3.1862598e-02
 -1.2761306e-02
  5.9199147e-02
  2.1433258e-02
  3.7637912e-03
  3.0077884e-01
 -2.0924531e-01
  1.9356932e-02
  4.3971203e-03
  1.1464634e-02
  1.2328739e-02
  3.2885611e-02
 -3.4662325e-02
  3.7771977e-02
  5.7615031e-02
 -1.8669561e-02
 -1.1527803e-01
 -8.0025941e-03
 -1.0198671e-02
  1.0784090e-02
 -6.4442223e-03
 -2.7345266e-02
  5.2246191e-02
  1.9243943e-02
 -5.6722672e-03
 -5.9327289e-02
 -2.9624023e-02
  2.7532943e-02
  1.3927130e-01
 -1.1240134e-03
  3.8687672e-02
  5.5393083e-03
  3.6503348e-02
  1.1052629e-02
 -3.1137103e-02
 -2.8240936e-02
  6.2568128e-02
  2.5051888e-02
 -1.3662453e-02
  1.0659803e-02
 -3.5620417e-02
 -2.0233829e-02
  6.4652793e-02
  8.2578079e-04
 -4.1267198e-02
 -1.6833629e-01
  7.5770684e-02
 -1.6478626e-02
 -5.6971423e-02
  6.2198727e-03
  8.0747679e-02
 -6.2069786e-03
 -2.3965763e-03
 -1.0356186e-01
  8.9778379e-03
 -8.8418415e-04
  2.8461015e-02
 -1.0369865e-01
  4.7023036e-02
 -3.6672931e-02
 -3.2648840e-03
 -9.2287824e-02
 -4.3334916e-02
 -6.2063839e-03
 -9.1445073e-03
  1.5067234e-02
  7.7712215e-03
  6.6144481e-02
 -6.2992406e-01
 -8.1190109e-01
  6.4362204e-01
  5.4996256e-02
 -6.2532717e-01
  9.4963551e-01
 -4.3866354e-01
 -1.0326586e+00
 -1.5497355e-01
 -3.5398769e-01
 -1.3797313e-01
  1.2126324e+00
 -5.6194376e-02
  8.5032322e-02
 -5.8285655e-03
 -5.8570582e-01
  2.7134731e-01
  1.9556990e-01
  4.5922866e-01
  1.3605440e-01
 -1.9769195e-01
  5.6206230e-02
  1.1738814e-02
 -1.2878929e-01
  4.5379183e-01
  1.3509088e+00
  3.2576389e-04
  2.7491295e-01
 -1.7025031e-02
  1.0245735e-02
 -4.7256742e-03
 -5.4101786e-03
 -4.3330106e-01
 -2.7796116e-01
  6.3815601e-02
 -9.1303021e-02
 -4.8235226e-02
  4.8576802e-02
 -2.9879136e-02
  9.6151777e-02
 -1.1727501e-02
 -1.2616310e+00
 -5.6878424e-01
 -1.1978874e-01
  4.0230598e-02
  9.5795430e-02
  6.4456291e-02
 -1.1062869e-01
  8.9181820e-03
 -6.7335879e-03
 -8.7082908e-03
  3.0745968e-02
 -5.6324795e-02
 -1.4072448e-02
  6.6612624e-02
 -3.2870676e-02
  1.8542537e-02
  5.5015266e-02
  4.6394784e-02
  1.0591704e-02
 -8.6728714e-02
  8.5819028e-03
  7.0934899e-02
  5.7501614e-02
 -5.8961930e-03
  1.0679020e-02
 -5.4096784e-03
 -6.8034805e-02
  1.8049655e-02
  3.7555024e-03
  6.6706635e-02
 -2.9498441e-03
 -2.2631572e-03
 -9.0121947e-02
 -7.0606396e-02
  7.2979316e-02
  1.3074528e-01
 -3.1140647e-03
  1.4352353e-01
  1.3894349e-01
 -6.8177832e-03
  2.2678139e-02
 -1.0543119e-02
  2.4049606e-03
 -6.7069769e-02
  4.7069106e-02
 -6.4743660e-02
 -3.3594660e-02
  2.4195272e-02
  1.8851269e-02
  1.7986868e-02
  2.8898574e-02
  2.7907437e-01
  1.7102478e-02
  1.0776967e-02
 -8.9733060e-03
 -3.6923043e-02
  2.7674574e-02
  7.1461305e-02
 -5.0000511e-02
 -2.4659155e-02
 -5.3050045e-02
 -2.7742494e-02
  7.5050205e-02
  3.2839812e-03
  5.7436712e-02
 -7.1511278e-03
 -1.1121909e-01
 -2.2052309e-02
 -5.7797734e-02
  2.5279671e-02
 -2.0914311e-02
  5.1970735e-02
  1.4550321e-01
  2.5826007e-02
  4.3129623e-02
  2.4759028e-02
  1.2898219e-01
 -1.9789249e-02
  1.5762420e-01
 -1.0277595e-02
 -1.2174320e-01
  1.9444746e-01
  2.3392040e-02
  2.8489080e-01
  2.8727917e-02
 -4.6151243e-02
 -1.9978669e-02
  2.1158924e-02
  3.8503833e-02
  1.9321966e-01
  1.2261765e-01
  2.1477917e-02
 -5.2417254e-01
 -1.7334619e-01
 -9.8199561e-02
 -1.5045837e-01
 -7.3607065e-02
 -9.9141248e-02
  3.0847946e-01
  2.5277944e-02
 -2.0259941e-01
 -1.6634093e-01
 -4.9559906e-01
 -2.3502897e-02
  1.0415950e-01
 -2.6878532e-02
  1.3543679e-01
  7.7459455e-01
  5.5868294e-02
 -1.7294389e-01
  1.6042581e-01
  6.6892868e-01
  3.4095813e-02
 -9.0327837e-02
 -1.6469261e-01
 -1.1468813e-01
  2.5105516e-03
 -1.6952336e-01
  8.0862665e-01
 -2.0948303e-01
 -6.7083305e-01
 -5.3812573e-03
 -1.6527649e-02
 -6.4526737e-02
  5.5692561e-02
  1.8311869e-02
  1.2285918e-02
 -2.5219616e-02
 -1.3095898e-02
 -1.5639514e-02
  5.5699497e-03
 -9.7054444e-02
  3.5133619e-02
 -3.9725460e-02
  1.1121312e-03
  6.1063465e-02
 -2.4824234e-02
 -1.4894114e-02
 -6.9612160e-02
 -1.0551165e-01
 -5.4578267e-02
  1.8142179e-02
 -6.9847181e-03
  2.2722021e-02
  3.0892699e-03
 -1.7228380e-02
  4.4363473e-02
 -2.8102914e-02
  1.8423223e-03
  2.1531228e-03
  3.9039314e-02
 -7.1935989e-02
 -6.4527174e-03
  2.6049608e-02
  7.8056015e-02
  5.9980251e-02
  1.1447989e-01
 -1.4453844e-04
  1.6207171e-03
  1.5646961e-02
 -7.7508353e-02
 -9.8163513e-03
  1.7140809e-02
  6.8155676e-02
 -3.6371246e-02
 -3.0163396e-02
  1.2302896e-01
 -1.9661967e-01
 -2.8944917e-02
 -1.4520314e-01
 -6.1694410e-02
  3.6150615e-03
  2.3765091e-02
 -2.9853392e-02
  1.7635001e-02
 -4.3926865e-02
 -1.1074225e-01
 -1.6595788e-03
  1.9309039e-01
 -6.4668357e-02
  6.1328672e-03
  3.7040144e-02
 -1.2664448e-02
  1.6795331e-01
  2.2206518e-01
 -5.5793703e-02
  6.6034436e-02
 -2.1992490e-02
 -1.7925467e-02
  3.5481777e-02
 -3.2455828e-02
 -8.1686579e-02
  1.9380063e-02
  4.1994810e-02
 -2.9331438e-02
  1.2534727e-02
 -9.7579911e-02
  4.3568335e-02
 -6.6298552e-02
  1.0751873e-01
 -1.6200205e-03
 -4.0576242e-02
  4.4298038e-02
  1.9654073e-02
  1.8275458e-02
  1.2266592e-01
 -9.4162868e-03
  2.9801033e-02
 -1.4944904e-02
 -4.5312468e-02
  2.5282899e-02
  3.0102117e-02
  1.7269528e-02
  4.4798744e-03
  6.8231553e-02
  7.3252521e-02
 -4.1053486e-03
 -1.6748536e-01
 -1.7104736e-03
  2.2603104e-02
  2.0945908e-03
 -9.2049882e-02
 -9.0640225e-02
 -7.2183661e-02
  1.1540002e-02
  6.3436523e-02
  8.1845112e-02
 -1.9611705e-02
 -4.8587676e-02
  2.6577983e-02
  1.2940883e-02
  7.0713803e-02
 -5.7110339e-02
  4.8943926e-03
  1.2171776e+00
 -9.9983521e-02
  1.4486535e-02
 -7.1546838e-02
 -2.0073939e-02
 -1.2269175e-02
 -1.9096759e-01
 -7.8506224e-02
 -8.5126720e-02
  9.0749431e-03
 -4.6123002e-02
  3.2418910e-02
  4.3350849e-03
  5.9118371e-02
 -1.3121434e-01
 -1.3667131e-02
  6.0766734e-02
  4.2273875e-02
  1.2376204e-02
  6.2746570e-02
 -8.2426257e-02
 -1.9062515e-02
  6.5023531e-03
  2.0991643e-03
  2.1928506e-02
  4.2453274e-02
 -1.8309643e-02
  6.9454856e-02
  1.8388197e-02
 -4.9390130e-02
 -6.7430921e-02
 -5.5210281e-02
 -9.1185095e-03
  4.6046197e-02
 -1.5017886e-02
  3.3490144e-02
  3.2700591e-02
  2.5200801e-02
  5.1590097e-03
 -2.2939302e-02
 -4.0408619e-02
  5.2117415e-02
  8.6462088e-02
 -5.6152791e-02
  4.4828385e-02
  1.8471053e-02
 -4.4849899e-02
 -4.5984170e-01
  8.7744817e-02
 -4.0766742e-02
  2.5909342e-02
  6.6325972e-03
 -3.8824353e-01
 -1.1557676e-01
 -7.6143973e-02
  3.1483524e-02
  7.5048353e-03
 -1.0323168e-01
 -2.4168384e-01
 -8.2977615e-02
 -1.3962269e-01
  2.7468186e-03
  9.8782312e-03
 -1.4951357e-02
  6.6743910e-02
 -2.6827157e-02
  7.0388205e-02
 -4.5753848e-02
 -5.7778310e-02
 -8.9707464e-02
 -2.7529310e-02
 -1.5909040e-02
 -6.8595074e-02
 -7.0096366e-02
  1.8735534e-01
  7.4977231e-01
  1.6987245e+00
  9.5842324e-02
 -1.1411696e-02
 -2.5269829e-03
  1.1149306e+00
 -2.3001643e-01
  2.1031429e-01
  1.4347099e-01
  6.7643210e-02
 -4.8359912e-02
  5.7629347e-02
  6.5651363e-01
 -9.2711002e-02
 -2.0358600e-01
 -1.5433816e-02
 -1.7266119e-01
  1.1414292e-01
  1.9334428e-01
 -1.0120400e-01
  1.2492243e-01
  1.6719471e-01
  1.7478710e-01
  7.2560257e-01
 -7.6517455e-02
  1.0128831e-01
 -6.2660255e-02
 -3.4667008e-02
  4.3211233e-02
  1.7092435e-02
  9.2387325e-01
  3.2897493e-01
 -3.8715893e-01
 -1.7323950e-01
  1.4673339e-01
  2.8786616e-02
 -5.9377724e-01
 -2.5439608e-01
 -2.3873348e-02
 -8.2487270e-02
  4.0836391e-01
 -1.0435213e+00
  4.0713549e-01
  1.1870098e-01
 -9.5920321e-03
  1.2139290e-01
 -1.0275649e-01
  5.2456148e-03
  2.0375917e-02
 -1.5558887e-02
  1.7739730e-02
  1.8385530e-02
 -8.2640462e-03
  6.5573379e-03
 -3.3411231e-02
 -3.9159961e-02
 -1.3737668e-02
 -3.2774810e-02
 -1.4135299e-02
 -1.5023796e-02
  9.9954240e-02
 -2.5597738e-02
  4.0371340e-02
 -1.3076720e-01
 -4.5746636e-02
 -5.4305252e-02
 -7.0620915e-03
 -4.6513774e-02
 -1.5667643e-02
 -1.5486490e-02
  1.5043285e-01
  5.1436648e-02
 -1.3185192e-02
  1.2127974e-02
 -1.6059803e-02
  5.8084715e-02
  1.1278848e-01
  2.0732926e-02
  1.5886005e-02
  3.1896695e-02
 -2.0851144e-03
 -1.3023215e-02
 -3.5326853e-02
  7.4986950e-03
  7.0652999e-02
  5.6115072e-03
  2.0422343e-02
 -5.2441936e-02
  1.5243022e-03
  3.0934703e-02
 -9.4327495e-02
 -4.9959898e-02
  8.8424738e-03
  3.2393083e-02
 -9.2574116e-03
  9.6670268e-03
 -2.5687778e-02
  9.0542454e-01
  1.5236301e-02
  1.9031204e-02
  7.6781094e-02
  7.0732810e-02
  5.3650688e-02
 -4.3358408e-02
 -3.6546537e-03
 -4.3780375e-02
 -2.6047010e-02
 -2.7657315e-02
  2.7635023e-02
 -1.2437501e-03
  2.4072193e-02
 -1.1362199e-01
  2.5260987e-02
 -4.8520628e-02
  1.1905583e-01
  1.4562026e-02
 -7.9825055e-03
 -9.8064821e-03
 -6.3833292e-03
  1.1033022e-01
  7.3652901e-02
 -5.3695433e-02
  2.3700423e-03
  1.1921495e-02
  1.1805048e-02
 -1.5161647e-02
  3.4582816e-02
 -1.5333747e-02
 -1.4200196e-01
 -8.4773868e-02
 -1.4681985e-02
 -1.4581892e-01
  2.3017618e-01
 -3.1433012e-02
 -5.0335010e-03
 -2.4581425e-02
 -7.5358458e-02
 -1.9437620e-02
 -1.3097855e-01
  2.8689951e-04
  4.3623697e-04
 -4.2660438e-02
  2.6424238e-02
  3.6480851e-02
  4.6197362e-02
  9.8504834e-02
 -9.8164659e-03
  6.7283466e-02
 -1.0012319e-01
 -4.3610442e-02
  2.2407504e-02
  1.5805567e-02
  1.1783022e-02
 -2.3590969e-01
  4.5703147e-03
 -6.9615155e-02
 -6.2552243e-02
 -1.5166853e-02
  7.1161510e-03
 -3.2567617e-01
 -1.1487519e-01
  8.9974049e-03
  3.1678276e-03
 -2.9314997e-02
  2.4715513e-03
 -2.0153705e-02
  5.1152393e-02
  1.4238548e-02
  8.5805892e-05
  9.8066768e-03
 -1.9125856e-03
 -2.0522825e-02
  1.8901274e-02
 -8.3955944e-02
  2.4209030e-02
 -3.8608234e-02
 -9.4239809e-02
  1.4103875e-02
 -1.6308973e-02
 -6.4468682e-02
 -5.5934861e-02
  4.4136271e-02
  2.9351410e-02
  3.3353576e-03
 -5.9375577e-02
  2.3268139e-02
  9.4723059e-03
  4.2820353e-02
 -3.9920140e-02
  5.0946129e-03
  1.0035934e-01
  4.8727825e-02
  3.2581966e-02
 -4.6380144e-03
  9.8424338e-02
  8.2363620e-02
 -2.4228424e-02
  2.4859529e-02
  3.5248846e-02
 -5.8879886e-02
 -2.3410518e-02
 -9.4406635e-02
  1.4620706e-02
 -1.7373275e-02
 -4.0557450e-03
  2.8279943e-03
  1.7999518e-03
 -7.5914122e-02
  2.0805446e-02
 -8.4835226e-03
  1.9582088e-01
 -4.5442760e-02
  2.7958535e-02
 -1.5843654e-02
  4.3520026e-02
  5.1590081e-02
 -5.2084144e-02
  1.9211467e-01
  1.7128523e-02
 -9.7530887e-02
 -4.1649438e-02
  4.8576291e-03
  9.5883638e-02
 -1.2820417e-01
 -1.3561318e-02
  5.8678672e-02
  3.3828814e-02
 -2.4097428e-02
 -2.3994172e-02
 -1.2649350e+00
  1.1866724e-01
 -6.4524120e-01
  1.5930587e-01
  4.8349500e-01
 -8.0172956e-02
  1.4695531e+00
  2.9636279e-01
  7.7452672e-01
  1.1212380e+00
  9.7022593e-01
  2.2000742e+00
  3.5187668e-01
 -9.9686652e-02
 -1.1840092e-01
 -5.8735216e-01
  2.0021066e-01
  2.8474560e+00
  1.3982300e-01
 -3.2321236e-01
 -2.4647230e-01
 -1.3872401e-01
  1.0966764e-01
 -4.5695370e-03
 -1.0500311e+00
 -5.1820922e-01
  1.0036829e+00
 -4.4897595e-01
 -1.4003408e-01
 -2.9835928e-02
 -3.8967840e-02
  7.3877163e-03
  2.5864478e-02
 -6.4742053e-01
 -3.4930089e-01
 -1.6220368e-01
 -1.8211876e-01
 -1.9955248e+00
 -1.9837633e-01
 -5.9571085e-03
 -1.5828009e-03
  4.5779623e-02
 -5.3225732e-01
  3.4606472e-02
 -3.7753773e-01
 -5.0902939e-01
 -1.9962804e-01
  1.8699091e-02
  3.6576316e-02
 -4.5559570e-02
 -5.3196173e-02
  1.8301582e-02
 -4.1829381e-02
 -1.7772727e-01
  3.5145599e-01
  6.0529158e-02
  3.1616945e-02
 -1.6032729e-02
  1.1376307e-02
  1.3085194e-02
 -3.2764152e-02
  3.5997726e-02
 -1.0913148e-02
 -3.5694294e-02
 -4.7268439e-02
  1.2072659e-02
  1.7497646e-02
  5.3866699e-02
 -5.4845065e-02
  6.5953652e-03
 -2.3983182e-02
 -1.6053252e-02
 -2.1316521e-03
  1.1721582e-03
  6.7570517e-03
  1.1927038e-01
 -1.9315328e-03
 -1.6716827e-02
  4.5812901e-02
 -4.8839021e-02
 -1.6957575e-02
 -1.5901044e-02
 -2.1062039e-02
 -3.8730796e-02
 -6.5458588e-02
  6.2324580e-02
  1.5839778e-02
  4.3314967e-02
 -2.0238776e-02
 -2.8143000e-02
 -3.0001685e-02
  5.3261079e-02
 -2.7632732e-03
 -1.0615962e-02
 -6.5062679e-03
  2.9306831e-02
 -1.0145238e-01
  5.7023112e-02
  3.2608308e-02
 -1.7865779e-02
 -2.2350152e-03
  2.8655455e-02
  5.0497213e-03
 -1.1325135e-01
 -1.8753698e-02
 -5.2002899e-02
  4.5173608e-02
 -9.7015418e-02
 -1.8170292e-02
 -3.4157351e-02
 -5.1980145e-02
  2.1236826e-02
 -1.4137308e-01
 -4.9274310e-02
 -3.9014075e-02
  3.3243429e-02
  2.5318298e-02
 -2.7218975e-02
  1.3620357e-01
 -1.2403949e-03
 -4.7911596e-03
 -5.1627055e-02
  3.3537876e-03
  3.2113995e-02
 -1.0021491e-01
  4.4781949e-02
  6.0039628e-02
 -1.3500650e-02
 -5.6851476e-02
  6.6478759e-02
  8.0561757e-02
 -1.3359124e-02
 -2.6484812e-02
  4.2025216e-02
 -1.1123972e-01
 -6.3038059e-02
  1.5354829e-01
  3.3016063e-02
  1.0442488e-02
 -1.7597416e-01
 -1.1908105e-03
  1.1619928e-02
  1.4935779e-02
  4.7713816e-02
  1.9759914e-02
 -1.1560733e-01
 -2.6918137e-02
  3.4784090e-02
 -3.7323772e-03
  1.4615977e-02
  2.7578350e-02
 -4.4954423e-02
 -6.6790715e-02
 -1.1411957e-03
 -6.4625088e-03
 -6.3474745e-02
  1.0318828e-01
 -7.9648599e-02
 -5.1145037e-03
 -1.4882587e-02
  3.4118298e-02
  4.9302433e-02
 -1.0951757e-01
 -1.5795000e-02
 -3.4206145e-02
  4.6171448e-03
 -1.9830216e-02
  3.5996262e-02
  7.9064816e-03
  3.2155793e-03
 -6.3603893e-02
  1.4057341e-01
  6.5416753e-02
 -4.2327065e-02
 -4.6227306e-02
  4.6877865e-02
  6.8708062e-02
 -9.3635954e-02
 -8.3649449e-02
  2.3397842e-02
 -1.0290883e-01
  3.8349614e-02
  1.9663699e-02
 -1.2091202e-02
  1.6315009e-02
 -4.2745046e-02
 -6.6926307e-03
 -9.4935425e-02
 -3.4186821e-02
  7.6416805e-02
  2.9553119e-02
  5.9838712e-02
  2.6971336e-02
 -4.5191847e-02
 -3.5019752e-02
  2.4519119e-02
 -4.8745278e-02
 -4.2869128e-02
 -6.1320583e-03
  3.6955077e-02
 -3.3666164e-02
  1.4726182e-02
  2.5828552e-01
  9.0353571e-02
 -4.0109005e-02
 -1.9792015e-02
 -3.0105108e-02
 -7.2085835e-02
 -3.2133665e-02
 -2.6802896e-02
  1.3611546e-01
 -5.1033556e-02
 -1.8150097e-02
 -7.1876384e-02
 -1.1237094e-02
  5.7647418e-02
 -1.1490606e-01
 -4.8506662e-02
  4.7789246e-04
  3.7888143e-02
  2.1569004e-02
 -8.6382277e-02
 -7.9958841e-02
  7.5859237e-03
 -3.1352299e-03
  3.6195747e-04
 -2.0645911e-01
  1.5276316e-02
  3.6906533e-02
 -1.8422266e-02
 -2.3538815e-02
  7.4812904e-02
  6.5171920e-02
  8.6684590e-03
 -1.2052057e-01
 -3.5955079e-02
 -4.2177752e-02
 -1.3796268e-01
  5.0915085e-05
 -1.2020027e-01
 -3.1583151e-04
 -1.5300256e-01
 -2.3547187e-02
 -8.9815808e-03
  2.2689542e-02
 -3.2743629e-02
 -2.6190786e-02
 -1.0050593e-01
 -1.9892422e-02
  2.4433654e-02
 -4.1250776e-02
 -1.1125609e-02
 -3.1525664e-02
  3.0166458e-02
 -3.7763834e-02
  4.2256925e-02
  7.3718270e-03
  4.2817142e-02
 -1.7766669e-02
  1.0558154e-01
 -2.9867651e-02
 -1.8143220e-02
  4.8207592e-02
 -2.8265573e-02
  8.4038459e-02
 -4.6778403e-02
  7.9407446e-02
 -7.3539810e-03
 -9.0966336e-02
 -3.3282287e-02
  4.3181807e-02
  4.1900299e-02
 -2.4729326e-02
 -1.4287853e-03
 -7.2738449e-03
  6.3134700e-02
  1.1233795e-01
 -2.5842036e-03
 -5.2904464e-02
 -2.8240846e-02
 -3.2470562e-02
 -3.7430313e-03
 -3.4058290e-03
  4.3235019e-02
 -6.5177605e-02
  3.6148772e-02
  1.8459748e-02
  1.2779543e-01
  3.3880148e-02
 -2.3141528e-02
  8.1776008e-03
  8.8742645e-03
  7.0899136e-02
 -1.8985906e-01
  3.0567657e-02
 -1.5489000e-01
  1.8384881e-02
 -4.5979630e-02
  1.5994639e-04
 -3.3962335e-02
  2.0394264e-02
  8.2412148e-03
  3.6641411e-02
 -2.3419518e-02
 -5.1413968e-02
  5.2829098e-02
 -3.7126124e-02
 -4.3530460e-02
 -3.4683596e-02
  2.9119574e-03
  3.3194531e-02
  5.5275869e-02
  1.1611990e-02
  6.5159611e-02
  2.5552884e-02
 -7.4272975e-03
  2.4585828e-02
  6.2238708e-02
  3.5427872e-02
 -5.6194507e-02
  2.0437069e-01
  6.1056424e-02
  9.2921583e-03
 -5.8316395e-02
  6.4809985e-02
 -7.1907127e-03
  7.9836007e-03
 -1.0994863e-01
  3.3146515e-03
  7.7886261e-02
 -2.1938974e-02
  4.1261548e-04
  3.3534346e-03
  1.5317035e-01
 -1.8155846e-01
 -2.2032155e-02
 -1.5499921e-02
 -4.2811699e-02
  6.3476697e-02
  6.7731902e-02
  7.8719193e-03
  3.2366000e-02
 -1.3267135e-02
 -5.6179393e-02
  2.0509131e-02
  3.7328906e-02
 -6.0643263e-02
 -9.2587471e-02
 -2.2737544e-02
 -1.8743904e-02
 -7.8568459e-02
  1.6233373e-01
 -4.1847847e-02
 -9.2356123e-02
  1.1447736e-02
  1.4981954e-01
 -1.0920185e-01
  6.9292486e-02
 -2.0310991e-02
 -5.0947342e-02
 -3.2708555e-02
  4.6482394e-03
 -1.3539930e-02
 -2.3177207e-02
  4.0669506e-03
  5.8697358e-02
 -1.3455892e-01
  1.1291023e-02
 -1.3112915e-02
 -4.8757903e-02
 -3.4302600e-02
 -3.0295739e-02
 -7.4017551e-03
  5.0483223e-02
  1.1756873e-02
 -4.8312780e-02
  7.8931123e-02
  3.5958239e-03
  9.3260165e-03
 -4.4090878e-03
  7.0067830e-02
 -3.1500593e-02
  1.0853369e-01
  4.3961498e-01
 -2.4228562e-02
  9.4524613e-03
 -6.9830371e-03
 -4.4320062e-02
  2.1030046e-02
 -3.2742489e-02
  7.4620433e-02
 -5.2872291e-03
  1.5456470e-02
  1.0698289e-01
 -1.6906425e-02
 -1.2804436e-02
  2.9762361e-02
 -9.9308901e-03
  5.7100590e-02
 -4.8579264e-02
  1.3216554e-01
 -3.0347219e-01
 -2.6381508e-02
 -2.0212367e-02
  2.5802936e-02
  5.9990682e-02
  4.3818377e-02
  3.1394292e-02
  7.6695502e-01
  1.3513677e+00
 -5.5928677e-01
 -3.9710440e-02
  1.0231494e+00
 -2.9315073e-02
  1.2382817e-02
  3.1024942e-01
  4.3729380e-02
 -1.0090924e-02
  1.9358440e-01
 -2.2199713e-01
 -1.3853167e-01
  4.3368727e-01
 -9.2513926e-02
 -6.6195890e-02
  4.6834756e-02
 -2.9132870e-01
  1.5645352e-03
 -3.4855974e-03
 -1.9085911e-04
  2.3271166e-02
  1.2501401e-01
 -1.2801546e-01
  4.6687992e-03
 -1.1566449e-01
 -2.7879784e-01
 -6.4237587e-02
 -1.0487808e-01
 -3.3296061e-01
  4.7837906e-02
 -2.8567648e-01
 -3.6541749e-02
  5.0322676e-01
 -2.7517554e-01
 -7.6371717e-01
  1.0852517e-01
  5.0932026e-01
 -5.0010800e-02
 -5.6742085e-04
 -3.1235522e-01
 -1.8886272e-02
  8.0208089e-03
 -3.1341892e-02
 -6.8852603e-02
  1.5170726e-02
  9.8295599e-02
  3.5572156e-02
  4.3065488e-02
 -1.1147136e-02
 -2.2991095e-04
 -7.9359546e-02
  1.7395802e-01
 -2.1979265e-01
  3.9829049e-02
 -3.7444882e-02
 -6.4004384e-02
  3.0125311e-02
 -3.2730971e-02
 -4.1618854e-02
  5.3096417e-02
  3.9161377e-02
 -2.1528578e-03
 -1.1379449e-01
  3.8451295e-02
  1.4835827e-02
  1.2329994e-02
 -5.5884235e-02
 -3.6184601e-03
  2.7689319e-02
  4.3963566e-02
  9.6085463e-03
  2.0991525e-02
 -2.1681696e-02
  1.2636812e-02
  1.0257305e-01
 -8.1614748e-02
  5.8224693e-02
 -6.8167575e-02
  1.3278502e-02
  2.7200527e-02
 -2.5260914e-02
  2.9436699e-03
  5.1269762e-02
 -8.4066048e-02
 -8.1741005e-02
  5.7614725e-02
 -1.4334738e-02
  4.2584129e-02
  1.8705988e-02
  2.4054039e-02
 -1.0034074e-02
 -1.1451666e-01
 -1.5134118e-01
  3.8250834e-02
 -6.7630410e-02
 -3.7294962e-03
 -4.6843022e-02
  6.2270034e-02
  2.0214818e-02
  4.7035314e-02
 -6.4662565e-03
  7.2945361e-03
  8.0816746e-02
  2.2442821e-02
  7.9756491e-03
  1.5527857e-02
  1.1390639e-02
 -3.3941232e-03
  7.1794361e-02
 -2.7880354e-03
 -8.8853686e-04
  4.5613494e-02
  2.0376935e-03
  4.3276134e-01
  1.2482531e-02
  4.0070301e-01
  2.7666113e-01
 -2.9013360e-01
 -4.3874286e-02
  2.9036041e-02
 -1.0496170e-02
 -8.0546010e-01
  1.1619362e+00
  1.8814270e-01
  4.2435158e-02
  8.9696497e-03
  2.3604024e-02
  6.0535412e-02
 -7.8756362e-02
 -8.1055619e-02
  3.2140199e-02
  4.2486045e-01
  1.6480843e-02
  2.3403585e-02
 -6.0978383e-02
 -8.0767877e-02
 -1.5221736e-01
  7.7046938e-02
  5.9542963e-03
  1.1064836e-01
 -4.4145208e-02
 -2.4464177e-02
  4.0216647e-02
 -1.5948504e-02
 -8.0550555e-05
  7.0848294e-02
  2.4449825e-03
 -8.3467260e-02
  1.6668646e-01
 -5.9813070e-01
 -1.5859368e-01
 -1.3064531e-02
 -9.6060876e-03
  5.6318283e-02
 -6.0726225e-02
 -5.3106290e-01
 -9.6954532e-02
 -8.3281380e-01
 -1.5368709e-01
 -3.2838452e-01
 -5.3488661e-02
  3.3998333e-02
  8.1419565e-02
  3.8442764e-02
  1.2918890e-01
 -2.2278341e-02
 -1.3457465e-01
  1.1841610e-01
 -1.1033804e-02
  1.9703189e-02
 -6.8583968e-03
 -6.3627416e-01
  3.2641158e-02
  2.0184328e-01
 -6.1698295e-02
 -9.9685974e-02
  1.0770350e-01
 -2.0200059e-01
  4.2299576e-02
 -7.2573766e-02
 -1.2991835e+00
  3.7144389e-02
  8.7860413e-02
 -9.1046058e-02
 -4.7311857e-01
  1.9300524e-02
  3.2235797e-02
 -4.4745812e-03
  1.9455600e-01
 -3.6317654e-02
  4.8999402e-01
 -1.2699556e-01
  6.1040655e-02
 -7.0844758e-01
  8.9078424e-03
 -4.4299451e-01
 -4.0423727e-01
  3.4646073e-01
 -1.5736035e-01
 -3.4334326e-01
  9.9896733e-03
 -1.7879019e-02
 -4.0642008e-02
 -5.1857475e-02
  9.4061661e-01
 -2.4277404e-02
 -5.6370223e-01
  2.2083941e-01
  5.7312820e-02
  1.1809287e-04
 -6.6042602e-02
 -7.7795237e-02
 -8.0719166e-02
  8.0108887e-01
  6.4650029e-02
 -1.8120053e-01
 -5.3516377e-02
  4.7275372e-02
 -6.9092014e-03
  2.7343482e-02
 -9.0183355e-02
 -4.7916725e-02
  2.5902681e-02
  6.0176179e-02
  2.8372103e-01
  3.2933649e-02
 -4.6524876e-01
  3.7249881e-03
  4.3389234e-03
 -2.6739459e-02
  3.2971092e-02
  7.1908578e-02
  1.9550659e-02
  1.7133848e-01
 -8.7622413e-03
  1.2202018e-02
 -2.4055269e-02
  8.3675332e-02
  8.6780049e-02
 -1.0594126e-02
  7.1524538e-02
 -3.5148433e-03
  1.1716586e-02
 -1.1323532e-03
 -7.2964993e-03
  1.9261377e-02
 -5.9637684e-02
 -2.9026756e-02
 -1.5258542e-01
 -8.1103342e-03
 -1.5377114e-02
 -4.0135443e-02
  2.9907674e-03
 -4.6511304e-02
 -4.6663780e-02
 -4.6112422e-02
  9.8390907e-02
 -3.7881543e-03
 -6.6784874e-04
  3.1020299e-02
  1.2543978e-02
 -1.4670424e-01
 -4.0530324e-02
 -8.1015736e-02
  1.4393111e-01
  1.4681255e-02
 -2.5303833e-02
  3.4664292e-03
  2.1748554e-02
 -9.8374551e-03
 -1.2046410e-02
  9.0445139e-02
  6.0272094e-02
 -2.8143505e-02
 -2.3461166e-03
  3.6836859e-02
  1.7907352e-03
 -3.4621172e-02
 -8.2823925e-02
 -1.4859760e-01
 -5.1884145e-02
 -3.2256689e-02
 -3.2625580e-03
  3.3815954e-02
 -4.8900574e-02
 -6.6811003e-02
 -2.4839411e-02
  3.8999535e-02
  6.4203241e-03
 -2.1150143e-01
 -4.0743198e-02
  5.3721391e-02
 -7.5056031e-02
  2.9158205e-01
 -4.1349329e-02
  2.1155773e-02
 -6.2537052e-02
 -3.5356149e-02
 -8.6099967e-02
  5.2088536e-02
 -5.7440381e-03
 -1.1129396e-02
  3.5454435e-03
  1.2462895e-02
  1.9718317e-02
  3.7901666e-02
  4.3131697e-01
 -3.5934992e-02
  4.9984224e-02
  9.0049818e-02
  1.1933985e-02
  1.8399732e-02
 -3.6718571e-01
  9.3208402e-03
  4.5252189e-02
 -1.9377987e+00
  1.7740829e-02
  2.8591468e-03
  2.9023406e-01
 -2.8618682e-02
 -3.4427401e-01
  1.4428925e-02
  4.3036658e-02
  2.3382384e-01
  4.1335493e-01
  8.3192848e-03
  1.8147843e-01
 -1.3213075e-02
  3.9474584e-02
 -4.1302347e-01
 -6.0688511e-02
  1.3407807e-01
 -1.9031492e-01
  6.4190775e-02
 -1.3229220e-01
 -5.2528739e-02
 -4.3395199e-02
  1.3482602e-02
  5.5748805e-02
 -1.9020043e-01
  1.1496285e-01
  6.1823063e-02
  1.7946161e-02
  1.0868356e-01
  1.4612583e-02
 -2.0154577e-02
 -4.2609345e-02
 -6.5285854e-02
 -4.3201238e-02
  1.9265410e-02
 -3.2618493e-02
 -1.1004258e-01
  8.0921903e-02
  2.9964516e-02
 -5.3931512e-02
  1.3095897e-02
 -2.7941406e-02
 -2.6346423e-02
 -1.2945608e-03
 -2.0071438e-02
  5.0438568e-04
 -3.7686124e-02
  1.0969413e-01
 -2.5625970e-02
 -3.0888587e-02
  1.0600624e-01
 -3.3096457e-03
 -4.3607550e-03
  8.8487163e-02
 -7.0261963e-02
  4.8364932e-03
 -1.1152711e-01
  1.5751040e-03
 -9.0560846e-02
 -8.0853421e-03
  4.0128524e-03
  8.8572234e-02
  9.0241404e-03
 -1.3628338e-02
 -1.4411950e-01
  5.2334514e-02
 -3.3449903e-02
 -3.4246840e-02
  4.1619338e-02
 -8.3043128e-03
  3.7634606e-03
  8.8305473e-02
  4.1584507e-02
 -8.5305378e-02
  1.8887188e-02
  2.1080644e-01
 -2.9612025e-02
  2.0067000e-03
 -1.6595763e-01
  1.2637297e-02
  3.5728749e-02
  2.0524585e-03
  1.7301524e-02
 -2.1620615e-01
 -1.7417535e-02
 -3.2224935e-02
  8.4571708e-03
  7.4054440e-03
  1.0087414e-02
  3.4819007e-02
  1.2417997e-03
  2.1263925e-02
 -6.1262753e-03
 -2.0516075e-02
 -3.7544612e-02
 -4.6014041e-03
 -2.3405025e-02
 -4.3666027e-02
 -1.1683648e-01
  3.2668997e-02
 -3.5006832e-02
 -6.1955135e-02
 -5.1691033e-02
  5.0553456e-03
  1.1512407e-02
 -1.8293425e-02
 -2.0417441e-02
  9.4603777e-02
  8.4560700e-03
 -2.5873996e-02
 -2.8069807e-02
 -2.0221015e-02
  3.7894715e-02
 -1.3283493e-02
  8.5975928e-04
  1.0739441e-01
  5.3008210e-02
 -6.2068170e-03
  1.0354844e-01
  6.9091447e-02
 -7.5840354e-03
 -7.2594799e-02
  4.1719242e-03
  2.7232211e-02
  1.7704245e-02
 -2.5404118e-02
  6.8659417e-02
 -3.2516092e-02
  3.5556667e-02
 -1.7379429e-02
  2.9898178e-02
  5.6470903e-03
  2.2246163e-02
  1.1441112e-02
 -2.5913713e-03
  1.3350358e-02
  3.7363260e-03
 -2.1978036e-02
 -8.2888111e-02
  4.5063589e-02
 -7.6310709e-02
 -7.7260630e-03
 -6.2469963e-02
  1.8822456e-02
 -6.2576003e-02
  2.1312686e-03
  1.2244774e-02
 -5.3315990e-02
 -1.0868869e-02
 -1.4274152e-02
  4.7075436e-02
  1.0058127e-01
 -5.6675237e-02
 -6.2751070e-02
  1.1383684e-01
  5.3258881e-02
 -2.2834862e-02
  2.5654595e-02
  1.9927688e-02
  8.8184485e-03
  7.2234511e-02
 -2.6752776e-03
  8.9107692e-02
  1.2809455e-02
 -6.3418201e-03
  2.7904470e-02
 -3.4109052e-02
 -7.8612892e-04
 -8.4593542e-02
  2.4670884e-02
  1.5710975e-03
  7.8631632e-02
  3.9717950e-02
 -4.1206673e-02
  5.5860844e-02
  1.5535468e-02
 -1.7200697e-02
  8.1152320e-03
  6.9697894e-02
 -1.4201240e-02
  5.5130616e-02
  7.0367428e-04
  2.7512483e-02
  1.3388386e-03
  9.6978927e-03
  6.5274149e-02
  4.3472786e-02
  7.3545143e-02
 -4.5515753e-02
  1.4346049e-02
  5.0544947e-02
 -9.5424727e-02
  1.8388493e-02
  3.4109097e-02
 -7.2543636e-02
  9.1582365e-02
  2.8016936e-02
 -9.5747807e-04
  2.4783807e-02
 -3.8951449e-03
 -1.4457588e-01
  2.3920279e-02
  3.1884931e-02
 -1.7201266e-01
 -2.7691964e-02
 -1.3105944e-01
 -2.4179675e-02
  1.9251488e-02
  1.4409097e-01
 -1.7065209e-01
  3.0218119e-02
 -8.0747316e-03
 -3.9606374e-02
 -3.1065019e-02
 -1.0958775e-01
 -1.7511749e-01
  6.5549463e-04
 -2.4207136e-02
 -6.9087178e-02
 -2.5099974e-02
 -4.7209166e-02
  4.7452845e-02
  1.0212540e-02
  1.4656753e-02
 -8.8488020e-02
 -1.3007535e-02
  1.2413939e-02
 -6.8769036e-03
 -1.1100574e-02
 -1.1266457e-02
 -1.6011382e-03
  6.0742695e-02
  3.1201031e-02
 -8.4628700e-06
  4.5218510e-03
  4.4380005e-02
  9.2254110e-02
  2.1862447e-02
 -1.5367059e-02
 -6.5423131e-02
  3.5331741e-02
 -5.5093346e-03
 -3.5464622e-02
  4.8637960e-02
 -9.6389465e-02
  1.0463873e-02
 -4.7271848e-02
  1.6720312e-02
  8.6855814e-02
  8.3571039e-02
  4.4293096e-04
 -1.0853220e-01
 -1.4699996e-02
 -2.7438957e-02
  4.1227333e-02
  8.4483791e-03
 -4.3762207e-02
  1.2613252e-02
  3.2140598e-02
 -6.9644684e-03
  7.7221386e-02
 -2.6512282e-02
  1.1182006e-01
 -7.9322141e-03
 -1.9091424e-02
 -1.0283854e-02
 -8.8099577e-03
  9.9479683e-02
  2.5503091e-03
 -7.3760189e-02
 -3.0049156e-02
 -1.0890095e-01
  4.7182396e-02
 -2.9333401e-02
  4.9761552e-03
 -4.4030447e-02
 -6.9725350e-02
 -2.8064877e-02
 -7.3010616e-02
  9.7409606e-02
  1.6253037e-02
 -1.2806226e-01
 -6.3056730e-02
 -1.0790610e-01
  1.2718566e-01
 -3.5757352e-02
 -7.3621728e-02
 -3.2326527e-02
 -5.0986391e-03
  5.0314076e-02
 -5.4127149e-02
 -1.2886760e-02
 -7.0319399e-02
  1.5888199e-01
  1.9418076e-03
 -1.4525893e-02
  2.8700512e-02
  2.6914062e-02
 -1.0391327e-02
  3.4180161e-02
  3.8348928e-02
  1.4356228e-02
 -3.2568194e-02
  2.8611464e-02
  2.2919073e-03
  1.4920490e-03
  7.8897916e-02
  2.1182746e-02
 -7.4057080e-02
 -6.1841160e-03
  3.7293665e-02
 -4.7276270e-02
 -7.8187427e-03
 -1.3032522e-02
 -1.5711304e-02
 -5.3417455e-02
 -1.9355481e-02
  7.0082605e-01
  6.8248823e-02
  2.2512464e-02
 -3.5697646e-02
 -5.1154986e-02
 -3.5500729e-03
  3.0699635e-01
  1.1845607e-01
  1.1778417e-03
  2.9301408e-01
 -1.4539171e-02
 -7.4968375e-02
 -3.3625297e-02
  3.4100402e-02
 -6.0797706e-02
  1.8411514e-03
 -8.8983995e-01
  4.0946128e-03
 -1.8572307e-01
 -2.7437275e-02
  6.1474234e-01
  8.5746610e-01
 -2.4935644e-02
  2.1870632e-02
 -6.9082662e-02
  6.0594294e-02
 -9.0950862e-02
  2.5461400e-03
 -8.2313118e-04
  3.0801681e-01
  5.4576296e-01
  6.6869304e-02
  2.7431464e-03
  1.8924456e-02
  5.5905677e-02
  1.7933834e-02
  1.3238382e-01
  8.3893679e-02
  3.1483930e-02
  9.2493489e-02
  3.7221186e-02
  5.1862162e-02
 -2.3148172e-01
 -3.6390133e-02
  1.6295610e-01
  1.9010833e-02
 -2.6286235e-02
 -3.2123920e-01
 -4.5632559e-01
 -1.5346834e-01
  6.2523477e-02
  5.9627686e-02
  1.9674845e-02
 -7.6236665e-02
 -2.6569733e-01
  2.9229324e-02
 -1.3653943e-01
 -5.5569208e-01
  3.2946846e-01
 -2.7578197e-02
 -1.8726271e-02
 -7.2969383e-01
  7.8485213e-02
  1.4764264e-01
 -1.4943066e+00
 -1.2585372e+00
  4.4852757e-01
 -4.6420306e-02
  1.9282347e-01
 -6.6026956e-02
  4.8063076e-01
 -4.0899828e-01
 -1.0363820e-01
  2.8205895e-01
 -1.1092550e-01
  4.3684426e-03
 -4.6174146e-02
  1.0995690e-01
 -5.3891778e-02
  4.4838730e-01
 -3.0227052e-02
 -1.0454187e-01
  9.9110128e-03
 -5.6628215e-01
 -6.8949446e-02
 -1.0048349e+00
 -6.2087152e-02
 -1.5029831e-01
  1.4504775e-02
  5.1954620e-02
  2.5893601e-02
 -5.1919717e-02
 -5.2420467e-01
 -2.3811905e-02
  2.9498095e-02
  2.3542994e-01
  2.1357179e-02
  5.3471013e-05
 -1.8193944e-01
  5.9245590e-02
 -6.1405484e-02
 -2.5061828e-01
 -3.3867382e-02
  2.3144899e-02
  4.7411945e-01
 -8.1550241e-02
 -5.9508824e-01
  8.5307434e-02
  7.8348452e-03
  1.6382465e-02
 -9.8697849e-02
 -9.2271445e-03
  6.7519844e-02
  3.2511696e-02
 -3.0809554e-01
  6.2519766e-02
  2.1264421e-02
  6.0567539e-03
  1.5809072e-02
 -2.5751667e-02
 -5.5038007e-03
  1.0169091e-02
  9.9075194e-03
  5.4813892e-02
  1.3515808e-02
 -8.5686240e-03
 -5.2645919e-04
  2.7591798e-02
  9.6588515e-02
  1.7587978e-02
 -2.2849843e-02
  6.2663062e-03
  2.8101232e-02
  4.0555049e-02
  2.3369065e-02
 -6.0978141e-02
 -8.1074581e-02
 -6.7120433e-02
 -5.3176094e-02
  1.2535603e-01
  2.4927456e-02
 -9.9885672e-02
  6.3965362e-03
  5.7093631e-02
 -4.8408178e-03
 -5.1079091e-02
 -6.0074810e-02
 -3.5396699e-02
  4.0370217e-03
 -4.0523425e-02
 -1.0137128e-02
 -4.6537157e-02
  1.1920498e-02
 -2.8054811e-02
  2.9159741e-02
  3.9198779e-02
  6.9860071e-03
  7.4988743e-03
 -2.0528184e-02
  3.8532633e-02
  2.1375414e-02
 -4.9289972e-02
  5.4543748e-02
  2.7339874e-02
  1.2730847e-01
  3.1553663e-02
  3.8613945e-02
 -1.1359759e-01
 -1.9491617e-02
  4.5648608e-02
 -2.1996520e-02
  1.6166478e-02
 -5.7258751e-02
 -3.5922632e-02
  1.5714966e-02
 -2.3031157e-02
  4.0271049e-03
 -2.3839122e-02
  5.9693721e-03
  1.6738182e-01
 -6.9597930e-02
 -3.2957532e-03
 -1.4815473e-02
  4.0309619e-02
  1.2536621e-02
 -1.4269629e-01
 -4.4417020e-02
  3.6444817e-02
  7.6088416e-03
 -1.2183060e-01
 -9.4359785e-02
  1.6926660e-01
  5.6649175e-02
 -3.8397552e-03
  4.3689020e-02
 -5.6464411e-02
 -3.3202386e-03
 -4.1693304e-02
  1.1961841e-01
  3.1595569e-02
  2.6895100e-02
  2.2625795e-02
  4.8484016e-02
  2.0808410e-02
  4.8123255e-02
 -2.1898506e-02
 -1.3152164e-02
 -3.5367624e-03
 -2.0811403e-01
  1.7185481e-03
 -2.2132522e-03
  2.3112405e-02
  1.9207593e-02
 -6.0901241e-03
  2.1233112e-02
 -2.0877779e-02
 -3.3241697e-05
  7.9961151e-02
 -3.1361170e-02
 -2.2561049e-02
  2.5740927e-03
 -4.7770154e-02
 -2.4030898e-02
  8.8604555e-02
  5.1928405e-04
 -6.9012552e-02
  1.2577134e-03
  1.8885707e-02
 -3.5286017e-02
 -6.0256239e-02
 -3.1351082e-02
 -3.5442799e-02
  2.3233643e-02
  1.0644896e-02
 -2.7377836e-02
  2.0897847e-01
 -1.6542574e-02
  7.7102166e-01
 -3.0286002e+00
  1.9782996e+00
 -6.3153845e-03
 -1.6001977e+00
  7.6968741e-01
 -1.5221906e+00
  1.4383420e+00
 -1.7709501e-01
 -5.0099403e-01
  9.3007617e-02
 -3.4765922e-02
  5.9949219e-02
 -5.6430656e-02
 -1.3103656e-02
 -1.0445402e+00
 -3.0973184e-01
  1.8868864e-01
 -5.8762260e-02
 -2.4370175e-02
  5.9389517e-02
  7.5894564e-02
 -9.3586063e-01
  8.4586158e-02
 -8.5089076e-03
  4.1902733e-01
  1.9208293e+00
  1.2471773e-02
 -4.1840222e-02
 -3.0277801e-01
 -7.4299350e-03
  6.7443913e-01
 -2.3166306e-01
  1.1660488e+00
 -3.7299770e-01
  9.1392255e-01
  1.0638188e+00
 -5.7233609e-02
 -1.6182166e-01
 -2.1525232e-02
  2.0825125e-01
 -2.8792454e-04
  8.0993307e-01
  6.2481809e-02
  8.2382180e-02
  1.5873659e-02
  4.1943103e-01
  1.4526390e-02
  7.8227840e-02
 -2.2401424e-01
  3.5687257e-02
 -7.2782084e-02
  1.6773302e-02
 -9.0275370e-03
 -1.4587779e-02
 -6.0662337e-02
 -2.5015339e-02
 -4.5578871e-02
  3.0809551e-02
  2.0505837e-03
 -5.4620001e-03
 -3.4862794e-02
 -4.3308340e-02
 -1.4978958e-02
 -7.2917156e-03
 -3.8816489e-02
 -6.5503255e-02
 -5.3945359e-02
 -1.9382100e-01
  4.8597087e-03
  3.8372882e-02
  5.5192485e-02
 -1.5907060e-02
  8.4825896e-02
  8.9368802e-03
  6.6065732e-03
 -5.6781657e-03
  2.0184865e-02
 -8.8626035e-02
  1.5497729e-02
  1.7716307e-03
  6.2884768e-03
 -1.7500598e-02
  8.4027704e-03
  5.5015866e-02
  3.9760158e-03
 -7.8255329e-03
  8.6471550e-03
  3.4462731e-02
  8.6239455e-03
 -8.2173944e-02
  4.5047030e-03
  4.2449916e-03
 -2.7630137e-02
  3.4835301e-02
  5.2882057e-02
 -3.2793809e-02
  1.6893530e-01
 -1.3366144e-02
 -1.6671821e-02
  1.5545034e-01
 -2.4283286e-02
 -3.4797847e-02
 -2.1973681e-02
 -5.7028282e-02
  3.2683425e-02
  5.7962788e-03
  2.3873594e-02
 -2.0955728e-02
  8.0692194e-02
  1.6064337e-02
  5.1802928e-03
  7.3957548e-02
 -3.0297120e-03
  4.6158712e-03
  1.1067976e-02
  5.5048808e-02
 -2.1222895e-02
 -3.3298362e-02
  4.5313943e-02
  2.4229713e-02
 -7.9343043e-02
  3.4908943e-03
 -4.3083046e-02
  1.5971690e-02
  1.0195218e-01
 -2.8468605e-02
 -5.6846380e-02
  4.5376107e-02
  4.4248137e-03
 -1.6502798e-02
  3.8296424e-02
 -3.6534350e-02
 -5.0352741e-04
  1.2744118e-01
  4.6101838e-02
  3.1929332e-01
 -5.9305113e-02
 -9.4466284e-03
 -2.3994423e-02
 -5.5637192e-02
 -1.4230990e-02
 -2.2154462e-03
  4.6240594e-02
 -5.0547574e-02
  3.8289130e-02
  1.2698503e-01
  4.4096775e-02
  2.1870492e-02
  3.0791746e-03
 -1.4809582e-02
 -1.2851954e-02
 -4.2896657e-03
  2.7115770e-02
  8.0133043e-04
  1.5597584e-02
 -2.7934298e-02
 -5.2521713e-02
  3.6607761e-02
 -7.6895198e-03
  2.3944110e-02
 -1.2830731e-02
  5.3484656e-02
 -6.3999966e-02
 -1.1091806e-01
 -7.8111492e-02
 -6.5157115e-02
 -3.9299700e-02
 -7.6649711e-04
  1.4623163e-02
  1.4785522e-01
  3.5837278e-02
  2.5111334e-02
 -9.5654428e-02
 -2.0403761e-02
 -9.5089629e-02
  1.3838027e-01
 -6.9760261e-03
 -1.0343210e-01
  2.8895371e-02
 -1.5067247e-01
  2.1376367e-01
 -1.1144626e-02
 -4.9081884e-02
  1.5345493e-02
 -1.6119866e-02
  2.0803422e-02
 -4.5100920e-02
 -3.1083984e-02
  1.8951418e-02
  3.7183885e-02
  1.2221337e-02
 -1.2128910e-02
 -4.8078806e-03
  1.3653041e-02
 -5.9855193e-02
  4.3921605e-02
 -3.4616575e-02
 -1.8222064e-02
  1.5005003e-01
 -3.7121719e-01
  2.2626380e-02
 -5.7640828e-02
 -4.0591802e-02
 -1.4032689e-02
 -8.8493228e-02
  1.9270660e-02
 -7.0276204e-03
 -1.3686289e-01
 -1.1270537e-01
 -4.7716349e-03
  6.8616355e-03
  1.2737171e-01
 -7.6238237e-02
 -1.2310077e-01
 -1.2683950e-01
  4.1859496e-01
  7.8813523e-02
 -2.7230491e-03
 -1.1486029e-02
 -5.0067734e-03
  1.0092996e-01
  9.2757486e-02
  1.5579069e-01
 -9.6336603e-03
  3.0359477e-03
 -2.7537454e-02
 -7.4175060e-02
 -6.3461736e-02
  6.2974505e-02
  1.2934899e-02
 -3.2582255e-03
 -2.3702186e-02
  5.4451041e-02
  4.6086963e-03
  3.3569656e-02
  1.0178462e-01
  1.1917100e-02
 -3.9970737e-02
  1.3898071e-02
 -1.4104062e-02
 -6.2378272e-02
 -2.0001881e-02
 -1.0309452e-01
 -4.2479441e-02
  1.8554807e-02
  1.0361183e-01
 -6.3664322e-03
 -3.5566188e-02
  1.3935055e-02
  8.2431741e-02
 -3.0762993e-03
 -2.7877501e-01
  3.0556055e-02
 -6.9076218e-02
  6.3545898e-02
  5.3599812e-03
  1.5737731e-02
  1.1205003e-02
  1.1397935e-01
  6.8527609e-03
  7.9850387e-04
 -2.0069449e-01
 -5.2058967e-03
  8.2762286e-02
  3.5625283e-02
 -1.4469955e-02
  1.3094956e-02
  5.0157718e-02
  1.0083920e-02
  6.4991321e-03
 -6.8531238e-02
  8.0007553e-02
  3.3629294e-02
  3.3265244e-02
 -6.0503274e-02
  1.9043084e-02
  7.6223137e-03
  1.3128554e-02
 -2.6328966e-02
 -6.3194614e-03
 -3.2732561e-03
  3.4701087e-02
 -8.6535988e-03
 -4.4411052e-02
  3.2962717e-02
  7.9651356e-02
 -5.0289761e-02
 -5.2183270e-02
 -1.1327353e-02
  3.5034256e+00
 -2.5082669e+00
 -1.3866346e+00
 -3.1345949e-01
 -4.9017113e-02
 -2.0824002e-01
 -2.2112496e-01
  1.1696793e-01
 -3.7949305e+00
 -7.7629542e-01
  1.4146638e+00
 -2.6158693e-01
 -5.2023325e-02
 -5.8199322e-01
 -1.5492250e-01
 -6.9568473e-01
  4.2988843e-01
 -1.9160664e-01
 -3.1295158e-03
  2.6773632e-01
  5.5556074e-03
  2.9039521e-02
 -1.5524729e-01
 -1.4194478e-01
  1.0127868e-01
  5.6136671e-02
  4.1721898e-01
  5.2660894e-02
 -2.1008891e-01
  3.7795428e-02
  4.1574733e-03
 -8.1609148e-01
 -8.9107418e-01
  1.0237780e+00
 -1.5717138e-02
  6.1830461e-01
 -4.8523605e-02
  2.9870504e-01
  1.7964506e-01
  1.4277430e-01
  7.6978341e-02
 -6.3462421e-02
 -6.0115212e-01
 -3.1009238e-02
  1.3670897e+00
  2.9807488e-02
 -2.1553360e-02
 -2.4667423e-02
 -4.4225831e-02
 -1.4921772e-01
 -1.0000950e-03
 -1.7125091e-01
  3.1316277e-01
 -4.8857085e-02
  3.6430769e-02
  6.8174794e-02
 -1.0444280e-02
  3.9660770e-02
  2.7085040e-02
 -3.1917315e-02
 -1.0832413e-01
  5.4138459e-02
  2.3770578e-02
 -8.4262624e-02
 -1.9374095e-02
  1.3146614e-02
 -1.3878468e-02
 -1.3896198e-02
 -8.8471338e-02
 -1.9864967e-02
  1.5451686e-02
  1.0687928e-04
 -1.6271709e-02
  9.9572659e-02
 -6.2280156e-02
  1.3763483e-01
  5.2498754e-02
 -5.5691287e-02
 -3.1360440e-02
 -1.4311951e-02
  1.4774624e-01
  3.8899165e-02
  2.3962395e-02
 -2.1368273e-02
  1.4577355e-02
  4.0682819e-02
  3.9491914e-02
  1.1510728e-03
  1.6238406e-02
  1.6455943e-02
  2.0167980e-02
  7.1874205e-03
  1.3285706e-02
 -6.3463196e-02
 -2.2863641e-02
 -7.5116046e-02
  1.1147222e-01
  2.3529418e-02
 -5.8105592e-02
 -3.3472452e-02
  2.0474484e-02
  4.8329633e-02
 -3.0934341e-02
 -4.9806822e-02
  6.1195344e-04
 -2.5021577e-02
  7.6292388e-02
  1.1256983e-01
  3.4155238e-02
  2.9675834e-02
  3.4564625e-02
  1.7407779e-02
  5.5931243e-03
  2.0706120e-01
  1.8383290e+00
 -5.7196179e-03
  1.7850120e-02
  5.5933498e-02
 -2.3364039e-01
  4.6655536e-04
  4.3096393e-01
 -3.4256718e-01
 -5.1883673e-03
 -1.1677911e+00
  9.7855769e-02
 -2.6457068e-03
 -1.4479620e-02
  9.3389470e-03
 -1.2511140e-02
 -8.0946881e-01
 -5.4349832e-02
 -6.6750333e-02
  6.4898986e-01
  1.0331383e+00
  1.0350071e+00
  1.1694473e-02
  1.7388067e-01
 -1.0299831e-02
 -4.1338567e-02
 -1.9709563e-02
 -1.6269542e+00
 -3.2778803e-02
  4.9134370e-02
 -8.2901672e-02
 -2.2050321e-01
  6.5365671e-03
  1.6345810e-02
  9.3763933e-02
  1.6574759e-02
  1.3172784e+00
 -5.9601110e-03
  4.6886792e-03
 -5.6455322e-02
  2.4341271e+00
 -1.7783193e-02
 -1.2127749e+00
  1.0750161e-02
  7.1046191e-01
  2.3640926e-01
  3.6551632e-02
  1.9658228e-02
 -1.2760261e-01
 -1.0218800e-01
  5.5116611e-03
 -4.4610072e-02
  4.7322005e-01
  7.9255756e-03
  1.7424980e-02
  2.0254735e-02
  1.9189538e-02
  6.7493744e-02
 -2.9355135e-02
  5.4272749e-02
 -1.2697592e-02
 -1.7669834e+00
 -9.6877962e-02
 -1.4461909e-02
 -5.0688720e-01
 -9.3542933e-03
  1.1783593e-02
  3.5307970e-02
 -1.7483936e-03
  2.5232625e-03
  7.3420674e-01
 -4.5266649e-01
 -3.0831419e-02
  3.0187981e+00
  1.4291418e+00
 -8.1512351e-03
  9.5638130e-03
  1.5764194e-02
  8.2524590e-02
  2.0584221e+00
 -8.8104032e-02
  4.6960056e-01
 -2.6836766e-02
 -1.1259640e-01
  1.7613808e-02
 -1.6511065e+00
  2.7346927e-01
  2.4281329e-01
 -4.5902699e-01
 -1.5974696e-01
  8.0219322e-01
 -9.8384432e-02
 -4.5311298e-02
  3.9303757e-02
 -1.1403821e-01
  1.0282045e-02
  2.1777011e-01
  6.4025265e-01
 -1.9424295e-01
  6.9998324e-01
 -4.0244055e-01
  7.8902620e-01
  1.1476792e-01
  1.3220687e-01
  2.3962921e-01
  4.1478792e-01
 -6.4289659e-02
 -4.9330938e-01
 -2.9882025e-02
  6.6346033e-03
  7.6270312e-02
  3.4839389e-01
 -1.0410926e-02
 -4.6909210e-01
  8.2466409e-02
 -2.9433498e-02
  1.0476382e+00
 -1.2734954e-01
 -6.3382708e-02
  1.2893710e-02
  8.0064684e-01
  5.4124746e-02
  7.0487344e-01
 -9.0839386e-02
 -3.2825860e-01
 -5.8925100e-02
  6.7821648e-03
 -2.0158231e-02
 -5.5352277e-01
  5.7719760e-02
  2.2451747e-03
 -2.0422311e-02
 -6.5128046e-01
  2.5232822e-02
  3.6996014e-02
  1.0450895e-01
  4.5139622e-02
  6.6616267e-02
 -4.9202535e-02
 -9.5110589e-01
 -6.8015554e-03
  1.5007642e-01
 -4.1324714e-01
 -1.7067741e-01
  2.1081214e-01
  4.8296314e-02
 -7.1939021e-02
  5.9514962e-02
  3.8348977e-02
  1.8522609e-02
 -5.7311386e-01
 -6.3066643e-01
 -2.5805010e-02
 -3.5059206e-02
 -4.0817061e-01
 -2.6512619e-02
  3.6097500e-03
  1.7804861e-01
 -6.5501248e-03
  5.2174646e-01
 -1.4665454e-02
 -3.3353843e-02
  1.8091111e-02
  1.1725408e-02
 -1.5580736e-02
  5.2429638e-03
 -1.2394746e-01
  6.9376850e-03
 -2.4924744e-02
  1.7954363e-02
  2.8525671e-02
  6.5984793e-02
 -8.5074417e-02
 -3.1661730e-02
 -7.0976154e-03
  3.3505641e-02
  2.0158942e-01
 -2.5793115e-02
  2.6174894e-02
  2.0555662e-02
 -8.3159447e-02
  1.1511276e-02
 -2.4149995e-02
 -1.5188343e-02
 -1.4290383e-01
  2.4733020e-02
 -1.3647916e-02
  9.3113165e-03
 -5.1231012e-02
 -1.5218946e-01
 -3.0182283e-02
  1.1963579e-03
  4.7694031e-02
 -3.2759719e-02
  2.7298681e-02
 -4.0570996e-03
 -4.9429974e-03
 -1.2287388e-02
 -1.8945798e-02
 -4.2022425e-03
  4.4370195e-01
  3.7817950e-03
  5.1032398e-02
  7.9284711e-03
  2.0599943e-02
  5.6900281e-02
  4.7678832e-02
  1.7593915e-02
 -1.4194371e-02
  4.8078287e-02
  1.8120799e-02
 -2.7789671e-03
  1.1848009e-01
 -6.5466799e-02
 -2.1692837e-02
 -1.4394671e-02
  3.4170110e-02
  2.6498505e-01
 -3.2501634e-02
  1.1565299e-01
  2.1971320e-01
 -2.7264479e-01
 -1.8630989e+00
  5.0750172e-01
  3.0677607e+00
  1.1952384e+00
 -2.6405888e+00
  3.8584306e+00
  1.4308164e+00
  2.7458899e-02
 -1.1702609e+00
  3.3883233e+00
 -1.6859883e-01
  6.0288411e-02
 -8.1793793e-02
 -1.9007981e-01
 -3.2680190e-01
  7.0193267e-01
  6.1689806e-01
  2.8291805e-02
 -3.0209896e-01
 -2.7628687e-01
 -2.1438423e-01
 -4.8215383e-01
 -1.2773547e-01
 -9.3371707e-01
  7.2180003e-02
  1.2073549e+00
  1.2496772e-01
 -2.7581863e-03
  8.2526553e-01
  4.5647964e-02
 -5.9867936e-01
 -2.6279498e-02
  3.7573725e-02
 -4.8032951e-02
  5.3947151e-01
  1.2742156e-01
 -1.1640351e-01
 -1.7315116e-02
  3.6625065e-02
  2.3476265e-01
 -6.3679069e-01
 -1.0923315e+00
 -2.1591595e-01
 -1.3143785e-01
  2.1052288e-01
 -8.2889363e-02
  1.1863020e-01
 -6.6650897e-02
  8.6199284e-02
 -5.9367705e-02
 -1.3745220e-01
 -8.8445004e-03
 -1.4497010e-01
  5.6659173e-02
 -3.7830647e-03
  1.5527583e-02
 -7.2773255e-02
 -6.7441896e-02
 -4.6707522e-02
 -6.1607007e-03
 -9.2832975e-02
 -5.5661794e-02
  2.4603972e-02
  4.1396569e-02
 -5.9442338e-02
 -2.2376830e-02
  5.3767566e-02
 -3.4537226e-02
  3.5013765e-02
  4.7962284e-03
 -6.1807316e-04
  1.7763652e-01
  1.4110883e-01
 -4.7839824e-03
  5.4341584e-02
  1.7727712e-02
  1.8053450e-02
 -8.1481613e-02
  2.0037618e-02
 -2.4142391e-03
  7.6484054e-02
 -4.7648989e-02
 -7.5605020e-02
  1.2280431e-02
  9.9617643e-03
  3.2406833e-02
  2.3781505e-01
  6.9749631e-02
 -2.2537982e-02
  5.5747494e-02
 -2.0529142e-02
 -3.9420839e-02
  8.3630793e-03
  1.2921889e-03
 -6.7303836e-02
 -1.7115597e-02
 -1.7272104e-02
 -8.0169410e-02
  8.7282702e-02
 -1.2828022e-01
 -2.2331545e-02
 -1.1148985e-02
 -8.3395660e-02
  1.0649192e-01
  6.6485673e-02
 -1.2109208e-02
 -4.7171609e-03
 -7.4432008e-02
 -4.1755252e-02
 -2.3858681e-02
 -5.1717847e-03
 -4.4390842e-02
 -4.1819576e-02
 -7.7424116e-02
 -4.6542017e-03
 -3.1095954e-02
 -2.9020065e-02
 -4.8122354e-02
 -9.3562324e-03
  1.0818500e-02
  2.6485987e-04
 -2.6938957e-03
 -6.9133262e-03
  1.9369551e-03
 -5.7056062e-02
  1.1723868e-02
  1.0168715e-02
  1.6468989e-02
 -6.8656035e-02
 -1.3723984e-02
 -2.9978776e-02
  3.3590250e-02
  9.5649250e-03
  3.7665591e-02
 -2.3532990e-02
 -3.0782778e-02
  5.9023894e-02
 -9.0412423e-02
 -2.7215797e-02
 -6.5960810e-03
  1.2520348e-01
  1.3906148e-01
  1.4246126e-02
  1.4375491e-02
  2.7862251e-02
  2.4476325e-02
 -7.2237685e-02
  2.6035532e-01
  7.1705811e-02
  8.7858856e-02
 -3.3150807e-02
 -4.9681831e-02
  2.7247595e-02
  1.2139581e-01
  2.9605258e-02
  7.2879437e-04
 -4.1084975e-02
 -5.5309467e-02
 -5.1352780e-02
  3.8168140e-02
  4.6909391e-03
 -1.1003966e-01
 -2.6273729e-02
 -2.2168953e-02
 -1.7858759e-01
  6.8071648e-03
  2.5080755e-02
 -1.8934228e-02
  3.0365605e-02
 -6.5728133e-03
  9.1687389e-02
 -4.8925515e-02
  5.7745889e-02
 -9.1554798e-02
  5.0216828e-02
 -9.2945606e-02
  4.9534451e-02
 -4.9305495e-02
 -4.1324570e-04
  5.1882237e-02
 -6.8867654e-02
 -1.4135235e-02
 -8.0056060e-03
  3.5465155e-02
 -1.4996461e-02
 -1.0952014e-01
 -2.9144069e-02
 -5.7243679e-02
  7.9079086e-01
 -4.9511556e-02
  1.1724439e-01
  2.9757289e-02
 -2.2761647e-01
 -2.8339621e-02
  2.0001583e-02
  4.0628631e-03
  4.2889696e-02
  6.2415050e-03
  1.0645615e-01
  3.5996638e-02
  9.1013603e-02
  3.7899740e-02
  1.0499963e-01
  4.3442328e-03
 -1.7145198e-03
 -2.9916964e-02
 -3.2198648e-03
  1.4546726e-02
  1.0551982e-02
  9.6785724e-02
  1.2931978e-02
 -2.5627892e-03
  3.1827684e-02
  2.4249557e-02
  4.2662406e-01
 -5.6099206e-02
  9.9424817e-02
  2.1344790e-02
  4.2725645e-02
  1.2112869e-01
  2.9717931e-01
 -4.1335626e-03
 -3.3094508e-03
  1.0916223e-02
 -6.4103408e-03
  1.1172096e-02
 -4.6056263e-02
  5.9002233e-03
 -3.3128854e-02
  3.2218462e-01
  8.5195173e-03
 -7.9844091e-03
  2.7660465e-01
  3.3532761e-02
 -2.0113202e-02
  3.4344807e-02
  2.4485338e-02
  7.9861246e-02
 -1.7913233e-04
 -9.7042620e-02
 -3.7350722e-02
  5.1881470e-02
  1.6827482e-01
  3.1015071e-01
 -1.6453968e-02
 -2.9363725e-02
 -6.7953184e-02
  2.6080599e-01
 -9.6296929e-02
 -3.5648044e-02
 -8.9397371e-02
  2.2797765e-01
  3.5511747e-01
  1.8861592e-02
 -5.2999493e-02
 -1.7638737e-04
  4.0873107e-01
  1.8626346e-01
  4.8852164e-02
 -1.1321740e-01
 -1.2629104e-01
  5.1534083e-02
 -1.5775320e-01
 -1.3139895e-01
 -3.8161248e-01
 -9.3938997e-03
 -2.7436331e-01
  4.9117912e-02
 -3.3514488e-01
 -6.2944435e-02
  2.8755976e-02
 -6.6396338e-01
 -4.3318895e-01
 -2.8568310e-01
  3.5126559e-02
 -5.4752439e-01
 -2.0817693e-02
 -2.1880984e-02
 -2.7628448e-03
  3.0896036e-02
 -3.5459787e-02
  8.2417861e-02
 -8.9235529e-03
 -2.5851824e-03
  1.9650216e-01
  6.4927250e-02
 -3.1324278e-04
 -7.9452062e-01
 -8.7945342e-01
  8.0647990e-02
  5.9876817e-01
 -3.0150604e-01
 -5.8431122e-02
  3.3003697e-01
 -7.5308430e-01
 -1.3268862e+00
 -4.4319707e-01
  4.4770858e-01
  1.9791400e-01
 -2.5507227e-01
  6.7622468e-02
 -4.2775857e-01
 -1.9680150e-01
 -4.1190501e-02
 -1.1488993e+00
 -4.2336616e-01
  8.9095837e-01
 -1.4242050e-02
  6.8650511e-03
  3.2119941e-02
 -5.2667892e-01
  5.9699323e-02
 -1.4397597e-02
 -8.6902065e-04
  4.9156630e-01
  1.5993424e-01
 -5.8952082e-02
 -2.2864664e-01
 -6.7682242e-01
 -9.0542567e-01
 -8.8632971e-02
 -8.7428696e-02
 -1.7716112e+00
  4.8827270e-01
  3.3769798e-01
  1.2602474e-01
  2.4131937e-02
 -2.0690997e-01
 -1.6602960e-01
 -4.7128102e-01
 -1.8698148e-02
  3.1449506e-01
 -1.6526194e-02
 -1.2111122e-01
  5.3953759e-02
 -1.6969289e-01
  1.0420714e-01
  1.9513281e-02
  2.1406854e-02
 -3.1819361e-01
  4.3535762e-02
 -4.1710269e-03
 -4.7346306e-01
  7.3112212e-02
  6.9531642e-02
 -6.7016917e-01
  3.0786133e-01
 -1.7928791e-01
  8.4570661e-02
  5.7638932e-02
  6.1376333e-01
 -1.1427236e+00
 -1.7557310e-01
  2.5355721e-01
 -4.1801664e-01
  5.4352582e-01
  5.7517588e-01
  1.2482686e+00
  5.6057042e-01
  1.7254150e-01
  3.6327399e-02
  2.0761140e-01
  1.8948434e-01
 -6.1069781e-01
  5.1744808e-02
  2.4508950e-01
  5.9141290e-01
  7.4137020e-01
 -6.5172905e-01
  6.1746013e-01
 -1.8554665e-01
 -2.9666078e-01
 -2.3187969e-02
  6.1944592e-01
 -5.7514317e-02
  1.2805145e+00
  6.0773876e-02
  1.0942954e+00
  4.0580377e-01
  1.0667970e-01
 -3.8794109e-01
  3.3267699e-02
 -5.3856838e-01
 -2.1630503e-01
  3.0416673e-01
  1.7096776e-01
  2.0299239e-01
 -3.2084174e-02
 -3.3237901e-02
  8.2522130e-01
  1.7691158e-01
 -6.4875835e-01
  6.5375350e-02
  1.7891996e-01
 -1.5987562e-01
  9.2801702e-01
  1.1496795e-01
  1.5593638e-01
 -2.1675209e-02
  9.2283830e-02
 -3.6232802e-01
 -9.5401511e-02
 -4.6194848e-02
  9.8722450e-02
 -2.7574750e-02
 -1.4105160e-02
  3.1916060e-02
 -4.0707570e-02
 -9.0658978e-02
  2.9974014e-02
  7.8237459e-02
  1.5647640e-02
 -4.9938556e-02
  2.5258716e-02
 -4.4462262e-03
  7.2959855e-02
 -5.9722994e-02
 -1.4095494e-02
  5.4678414e-03
 -2.6633497e-05
  9.4599433e-02
  2.1637368e-03
 -4.6486434e-02
  6.4178139e-02
  2.8035380e-02
  4.5610350e-02
  3.5359927e-03
  1.7756291e-02
  6.3383698e-02
 -3.8014269e-03
 -6.8147659e-02
 -4.8139259e-02
  6.9462784e-02
  2.2211110e-02
 -4.8029955e-02
 -2.3167193e-02
  7.0971944e-03
  4.8411567e-02
  6.4162165e-02
  1.5877539e-02
 -3.6341381e-01
 -1.3940333e-02
 -1.7179370e-01
 -1.7839631e-02
 -8.8635013e-03
 -1.5889601e-01
  1.0643136e-03
 -5.6597825e-02
 -3.5225768e-02
  3.5115067e-02
  9.5817698e-03
  5.3407729e-02
  4.0358286e-02
 -1.4006099e-02
 -4.3961566e-02
 -2.9189534e-02
  7.4420661e-02
 -1.9971101e-02
  3.3082809e-02
 -4.0094834e-03
  3.6756420e-01
 -4.5512770e-03
 -3.7425872e-02
  6.1088655e-02
  6.7475885e-02
 -2.2719925e-02
 -5.6614913e-02
 -5.3273859e-03
 -1.4863075e-01
 -1.5587859e-01
 -2.7206743e-02
  8.6219460e-02
  1.4640459e-01
  6.3929126e-02
  1.2602827e-01
  5.2218592e-01
  4.4853833e-02
  1.6259801e-01
 -9.4593897e-02
 -8.1456527e-03
  2.7415237e-01
  2.6132341e-03
  8.6657964e-02
 -2.8396411e-02
 -1.1309216e-01
 -2.4233083e-01
  2.0737197e-01
 -1.4873843e-01
 -9.1871554e-03
  6.1159424e-02
  3.3990804e-02
  1.1486682e-01
  1.7385407e-01
  1.0474131e-01
 -3.4877051e-02
  6.0325276e-02
  2.8019965e-02
  4.4176582e-02
  1.1678733e-01
 -1.5418503e-02
 -3.1105645e-02
  3.8878125e-01
  1.8825647e-01
  1.5247954e-02
 -7.0583694e-02
  2.3267988e-02
  3.0857949e-02
  5.7496626e-02
 -7.5330704e-02
  3.2692428e-03
 -3.7718751e-03
 -2.5980598e-01
  3.1829592e-02
 -2.3861604e-02
  1.0305381e-01
 -5.7215098e-02
 -2.2392830e-02
  9.2373535e-02
 -7.1128093e-02
  8.0864924e-01
 -5.1413703e-01
 -2.4754314e-02
 -9.6065484e-02
 -1.5813032e-01
 -8.0077730e-02
  4.0178964e-01
 -1.7204382e+00
  7.4043870e-01
 -2.7754875e-02
  7.5033978e-02
 -7.3201889e-03
 -1.2982532e-01
  9.5917843e-02
 -6.2461412e-01
 -1.1423641e-01
  7.9640698e-01
  5.9303349e-01
 -5.6993295e-02
 -6.1238740e-02
 -2.7252115e-02
  9.7621344e-02
 -1.2084710e-01
 -5.5573034e-01
  4.8676148e-02
  1.1793914e-01
  4.4672314e-02
 -6.2285606e-02
  1.1526492e-01
 -3.0900817e-02
  2.8684452e-02
 -3.8408610e-01
 -5.2742273e-01
 -1.2413569e-01
  6.0769394e-02
 -8.2207166e-02
 -2.2441092e-01
 -9.6959150e-01
  1.1979795e-01
 -1.0573785e-01
  1.7000530e-02
  3.2203168e-02
 -2.4869155e-02
  9.2031762e-02
  2.1728316e-01
 -1.2796809e-01
  6.0879275e-02
  3.3940528e-02
  5.5090904e-02
  2.6885947e-02
 -6.7199342e-02
 -7.3167658e-03
 -9.4518714e-02
 -1.6734932e-02
  1.3688075e-02
 -6.3890278e-02
  8.7285139e-02
 -9.1132922e-03
 -1.8064445e-01
 -4.8952177e-01
  4.5758557e-01
  4.0135926e-01
  9.6500897e-01
 -2.4928887e-01
  4.2569804e-01
  4.2204532e-01
  7.3177055e-02
  1.2737556e-01
  1.4175273e-02
 -4.5905966e-01
 -3.9235640e-01
  3.0591753e-01
  4.0997788e-02
  2.1605892e-01
  1.0715635e-01
  1.5981089e+00
 -2.3786259e-01
  5.9163466e-02
  4.0790144e-02
  1.4603595e-01
 -2.7703263e-02
 -2.0794708e-01
 -5.7578152e-03
  1.8770891e-01
  1.3452464e-01
  4.7819015e-02
  3.6919481e-01
  1.3034236e-01
 -6.9935501e-02
 -1.4232195e-02
 -2.8838992e-01
  2.2768488e-02
  1.8381202e-01
 -1.4264904e+00
 -1.8734170e-01
  7.2891018e-03
  5.9011474e-04
  1.2180991e-01
  2.2676541e-02
 -1.8774952e-01
  4.0922709e-02
  2.6164418e-02
 -3.9882541e-01
 -1.6046071e-01
 -5.5940274e-02
 -4.3198955e-04
 -1.8784302e-01
  3.0691671e-01
 -8.6484306e-02
  1.9296488e-02
  5.2662846e-02
  2.2248237e-01
  3.3176821e-02
 -6.2099382e-02
 -5.6811411e-02
  3.0326951e-02
  4.2597495e-02
  8.1808567e-03
  1.8487077e-02
 -6.3728809e-02
 -2.6041665e-03
 -6.5070284e-03
  1.9813677e-02
 -1.0828193e-01
  7.8250118e-02
  3.4468904e-02
 -8.6924909e-03
 -6.2720389e-03
 -2.7178347e-01
 -3.1651281e-02
 -7.9480046e-03
  2.7100181e-02
 -5.0148889e-02
 -1.4053927e-02
 -2.5471188e-02
  5.8262236e-03
 -6.3539650e-03
  1.3406451e-01
 -1.2405924e-02
  3.4770101e-02
  2.3912959e-02
 -2.1201868e-02
 -3.3892831e-04
  3.3973232e-02
 -4.6349198e-02
  6.1497748e-02
  8.7941095e-02
 -4.4512674e-02
 -3.3371912e-03
  3.6944784e-02
 -1.1147242e-02
  1.3245780e-02
 -3.2289278e-02
 -2.6308966e-03
  2.6520045e-02
  8.5090898e-04
 -8.6220495e-02
 -3.3654805e-02
 -1.8870074e-02
 -8.8353813e-02
  3.1265404e-02
 -1.4423333e-01
  3.8007136e-02
  2.9084487e-03
 -4.4027127e-02
  1.0027333e-01
 -6.9869496e-02
 -1.2185218e-01
 -1.6311955e-02
  3.3643831e-02
 -1.3986406e-01
  2.8073450e-04
 -3.2259848e-02
  7.1440833e-03
 -3.4925777e-02
 -6.7534507e-03
 -1.3676490e-02
 -2.5951561e-02
 -5.9104558e-02
  2.7988287e-02
  1.4459817e-03
 -1.9762911e-02
  6.4708805e-04
 -9.3152292e-02
 -1.5243605e-02
 -1.0641683e-02
 -5.6133047e-02
 -7.2028139e-04
 -1.3116880e-02
  1.6095495e-02
  3.6079180e-04
 -9.0320781e-02
  3.4989234e-02
  2.4215264e-02
 -7.4170448e-02
  2.3105755e-02
  6.2583094e-03
  1.5508205e-02
  1.7182762e-02
 -1.6778839e-03
 -8.5703909e-02
  5.6931101e-02
 -1.3414954e-02
  7.4623055e-03
  3.5205178e-02
  6.3512281e-02
  8.4470727e-02
 -3.6314782e-02
 -8.0078105e-03
 -1.9720668e-02
  2.8902967e-02
 -6.1075214e-02
 -2.5870444e-02
 -1.8742432e-01
  3.7145697e-02
 -3.8934688e-03
  1.0378798e-01
  1.4793406e-02
  2.4290472e-02
 -3.3837110e-02
 -3.8993385e-02
  1.5810238e-02
  4.8590396e-02
  8.4365189e-02
  7.7689603e-02
 -3.4896046e-02
  5.1600859e-03
 -5.0267731e-03
 -8.1021532e-02
  5.5935062e-02
 -1.8972300e-02
 -1.1791302e-02
  1.8707976e-02
  2.2962140e-02
  6.1935354e-03
 -4.1075710e-02
 -1.0745551e-01
  5.0604649e-02
 -3.0040644e-02
  1.5704637e-02
  3.6077738e-02
 -6.7000061e-02
 -6.0270667e-02
 -5.7502650e-02
 -3.3395592e-02
 -1.2528786e-01
  7.4928150e-02
 -3.0196074e-02
 -3.6740381e-02
  1.8438498e-02
 -1.7210890e-02
 -2.7348541e-02
 -4.3293666e-02
  2.5788026e-02
 -3.8430467e-04
  1.6169904e-02
  8.1704650e-03
 -7.6268137e-02
  9.3610898e-02
  2.7925298e-03
 -1.8147860e-02
  8.5137352e-02
 -4.3147765e-02
  2.8076040e-02
 -1.1920116e-02
  3.5706121e-03
 -5.4406822e-02
  1.0997916e-02
  4.5967929e-02
  4.5827664e-02
  1.0051453e-02
 -2.8885489e-02
  1.2697694e-02
  2.4292018e-02
 -2.6883909e-02
  1.0448530e-01
  1.0486816e-02
 -3.6994016e-03
  2.5387029e-03
  3.2417964e-02
  1.0321916e-01
  7.7083372e-02
 -4.0999375e-02
 -3.0044878e-02
 -2.0208512e-01
 -1.4609089e-03
  9.3627525e-03
  4.8139412e-04
 -2.0899424e-02
 -7.1622401e-02
  1.2099451e+00
  6.5827012e-02
  1.5990117e-01
 -4.4793844e-02
  1.1473058e-01
 -2.0349214e+00
 -8.8163011e-02
  2.2819264e+00
  1.8593501e-02
 -7.1298212e-01
  4.2606154e-01
  1.6687942e+00
 -1.1311315e+00
  6.8682390e-01
  2.0874430e-01
  5.1878601e-01
 -9.5599487e-02
  1.8437440e+00
 -8.7348819e-02
 -5.9767604e-01
  2.7024031e-01
  1.0968376e-02
 -5.3732574e-02
 -1.9145181e+00
 -2.8259838e-01
 -2.4028495e-01
 -4.1892326e-01
 -1.1875159e-01
 -6.4909619e-01
  3.8525634e-02
 -2.0241739e-01
  8.4720673e-03
 -6.8226323e-02
  4.4358283e-02
  7.4686043e-02
 -7.2517648e-02
 -1.4975049e-01
 -1.5783101e-01
 -8.9920744e-02
  1.3924633e-01
  4.3216567e-03
 -4.9337417e-01
 -3.4878680e-01
 -3.5251509e-02
 -4.6561587e-01
 -1.1729706e-01
 -8.8313259e-02
 -8.6624503e-02
 -3.1969565e-01
 -1.5624345e-02
  1.0030908e-02
 -6.1860792e-02
  2.5867445e-02
  7.5572869e-03
 -2.8666746e-02
  5.6805807e-01
  3.1077554e-02
 -1.6267046e-02
  8.4207915e-02
  2.8867699e-02
 -2.1553984e-01
  1.4096104e+00
  9.2610794e-01
 -2.9751472e+00
  2.4940793e-01
  1.8372686e-01
 -2.5073731e+00
 -7.2121555e-01
  3.2902698e-03
  3.7439146e+00
 -4.6273449e-01
 -1.8953170e-01
 -7.9464298e-01
 -6.1606010e-03
  2.1702129e-01
 -1.3140765e+00
  1.2917508e-01
 -4.6047783e-01
  1.1900911e-01
 -1.3895683e-01
  5.1334351e-02
 -2.7906140e-02
  4.2474654e-01
  6.3601038e-03
  3.6458415e-01
 -4.9595711e-01
  1.0501242e-01
  5.0529312e-02
  4.0143222e-02
  1.1887275e-01
  5.3879533e-02
  1.5182840e-02
 -1.1930646e-02
  2.6284289e-01
 -5.9220546e-01
 -1.2885714e+00
 -7.1780957e-02
  2.7485855e-02
 -1.4897625e-01
 -1.3273270e-01
 -3.1314231e-02
 -1.6144710e-02
  5.6090550e-03
  1.2452101e-02
 -4.3375954e-01
 -5.4958696e-04
 -4.1289192e-02
 -2.7491068e-02
  2.3310262e-01
  1.4630646e-01
  3.7340753e-02
  2.1377389e-01
 -8.0412207e-04
 -1.8655057e-01
 -2.9377289e-02
 -9.0045175e-03
  7.6706171e-02
  2.3600899e-02
  6.1910760e-02
 -8.6367637e-02
 -5.5910949e-02
 -3.1532977e-02
 -1.2490470e-02
  2.5718041e-02
 -1.8739851e-02
 -2.5242064e-02
  1.0875738e-01
  3.2311324e-02
 -1.3494840e-02
 -3.5771701e-02
  1.1052775e-01
 -6.4208973e-03
  4.4712853e-02
  1.3153072e-01
  1.2365605e-02
  6.7206815e-02
 -4.9107317e-02
 -3.8807515e-02
 -1.9479262e-02
  6.3556433e-03
  2.3429943e-02
 -2.5214037e-01
 -6.2533640e-03
 -1.9956034e-02
  3.1754851e-02
 -3.8385157e-02
 -1.6996646e-02
 -2.6715709e-02
 -1.3352348e-02
 -2.8175469e-02
  3.6612257e-02
 -3.4996089e-02
  2.4199637e-02
 -1.3795570e-03
  6.4388267e-03
  1.3483429e-01
 -7.9895027e-02
 -1.6720183e-02
 -8.3175398e-02
  5.3776264e-02
 -3.6492792e-01
  1.3185288e-02
  1.8074177e-01
 -7.9547793e-02
  1.5380452e-02
 -3.5631983e-03
 -2.0013714e-01
 -4.0636223e-02
 -1.0045108e-03
 -8.4626958e-02
 -1.3187647e-01
  4.0545054e-02
 -3.2132793e-02
  7.6958756e-03
 -1.4938794e-02
 -2.0127494e-02
  5.1907275e-02
  1.3816084e-03
  1.0371548e-02
  2.6273469e-02
 -4.7119483e-03
 -1.8044391e-01
 -4.0357746e-02
  7.5681815e-03
 -2.5613254e-03
  2.1348495e-02
 -4.7447860e-02
  1.4163662e-01
  2.8512657e-02
 -4.4005006e-03
 -3.0127706e-02
  3.8137391e-01
 -3.1934250e-02
 -5.9513807e-01
 -1.3421381e-01
 -9.8101236e-02
 -2.1987602e-02
  3.8676202e-02
  2.1026108e-02
  7.4640103e-02
 -3.7983884e-03
  2.3934500e-02
 -8.6269587e-02
 -5.3840350e-02
  3.7753705e-02
  5.0311830e-02
 -4.7863882e-02
  3.7565488e-02
  9.8045003e-03
 -8.7246917e-02
 -5.3321730e-02
  1.5032831e-02
  3.8131401e-02
  1.5373706e-02
  1.6267831e-02
  6.5921769e-03
  1.9280726e-01
  4.4040605e-03
 -4.6734780e-02
 -3.0178692e-02
 -8.9962371e-02
  5.3088766e-02
  4.8939779e-02
 -2.2159332e-02
  4.7210913e-02
  1.7192360e-02
  6.1365675e-02
 -5.1342085e-02
 -1.1869865e-02
  8.2018360e-02
 -8.1745677e-02
 -9.1491323e-03
  3.7793394e-02
 -2.1009913e-02
 -2.8169824e-02
 -8.9764589e-01
 -6.8066870e-03
 -1.2726522e-02
 -3.7842009e-02
  2.2652665e-02
 -3.1404924e-02
  3.9092939e-02
  1.4610824e-02
 -9.3921751e-02
 -3.7664212e-02
 -3.3188559e-02
 -2.3575932e-02
 -1.5511553e-01
  1.9944048e-02
 -1.5239100e-02
 -7.2782813e-03
  6.8268739e-03
  9.9108666e-02
 -2.0524912e-02
  1.5308005e-01
 -2.8052777e-01
 -4.7240317e-02
  5.2795015e-02
 -2.0381069e-02
  3.7194438e-02
 -2.8182503e-03
 -6.4615195e-04
 -1.0237233e-02
 -3.5135355e-02
 -1.2524007e-02
 -1.2757499e-02
 -4.4695227e-03
 -1.0315031e-02
 -3.9698303e-02
  3.0203005e-02
  1.0299263e-02
  3.5118777e-03
  4.8463214e-02
 -9.4694421e-02
  5.5707861e-02
 -7.6208110e-03
 -2.7737413e-02
 -2.2717426e-02
 -1.5239673e-02
  1.7431207e-02
 -5.5391416e-02
 -9.1433004e-03
  1.2065041e-02
 -8.2851760e-03
  1.2211908e-02
  7.3397672e-03
  1.6245712e-02
 -4.1320693e-02
  3.4138195e-03
  1.0920616e-01
  1.1159439e-01
 -1.3148267e-02
 -1.2049266e-01
  8.5403249e-02
  6.4024419e-02
  1.1175087e-02
  9.4757006e-02
  1.0680126e-02
  8.7699614e-02
 -7.5317234e-02
  1.0372898e-01
 -9.4258627e-03
  4.0812842e-03
 -6.2743449e-03
 -1.4179799e-01
 -5.2012004e-02
  2.2206843e-02
  1.9913855e-01
 -3.0864341e-02
 -2.6314162e-02
  1.9288976e-03
 -7.2933055e-02
 -4.7197432e-04
 -1.5080129e-02
 -5.0964504e-02
  3.0580677e-02
  5.5316449e-03
  1.4308038e-03
  9.5527180e-02
 -5.9351295e-02
  1.5156542e-01
  7.2147094e-02
  8.3600879e-03
  9.5065515e-03
 -4.1009426e-02
 -2.8954845e-02
  4.5769371e-02
 -6.2334472e-03
  4.9413994e-02
 -2.4135759e-02
  7.8510426e-02
  4.1989647e-02
 -3.2620933e-02
  1.2174335e-02
  5.5704559e-03
  3.5185548e-03
 -3.0787697e-02
  8.1766024e-03
  1.3162718e-02
 -1.5629309e-01
 -8.3545230e-02
  1.5791643e-02
  3.8712151e-02
 -4.6951905e-02
 -7.4809261e-02
 -2.5198013e-02
 -9.8272460e-05
  4.8797857e-02
  1.3134344e-01
  6.2776908e-02
 -6.1725205e-01
  5.5988389e-01
 -3.2170939e-03
 -1.6439476e+00
 -3.5118107e-02
  7.5426221e-01
 -3.0202883e-01
 -3.9103144e-01
 -9.8780766e-02
  3.9638937e-01
 -2.4780653e-01
  1.4324303e-01
 -1.2562703e-01
 -5.0900234e-03
  2.6201159e-02
 -5.7227212e-01
 -3.5311107e-02
 -1.9790956e-01
  6.2924214e-02
 -2.6432309e-01
  4.7040280e-02
  2.1285649e-02
  8.9015357e-02
  4.7075078e-02
  2.1708159e-01
 -7.3375113e-02
 -2.0125544e-02
 -3.3994913e-02
 -1.2865886e-01
 -2.1962030e-02
  1.0146760e-01
 -9.9757634e-02
 -3.1934842e-02
 -5.2025598e-01
  6.2939566e-01
 -1.6397978e-01
 -2.5077084e-02
 -8.3104163e-02
 -2.3608880e-02
  3.3000207e-01
  3.2067505e-01
 -8.3901048e-02
  5.3901875e-01
  1.8170639e-03
  7.7157807e-01
 -4.1157458e-02
 -4.1793868e-02
 -5.4149177e-02
  1.6295515e-02
  4.4504501e-02
  7.8453250e-02
  3.5951931e-02
  5.0383188e-02
 -8.3171941e-02
  3.5680689e-02
 -2.0751644e-02
  1.5767916e-01
  8.2830628e-03
  1.4961079e+00
  6.1982441e-01
  7.1066493e-01
 -1.4555451e+00
  3.6749970e-02
  1.8524492e+00
 -4.2845231e-01
  5.0430351e-01
  2.2433207e-03
  1.3440770e+00
 -1.4329982e-01
 -9.0713406e-01
 -8.3607845e-02
  1.3635810e-01
  5.9368032e-01
  6.8627858e-01
  3.0863805e-02
 -2.8275567e-01
 -2.3711318e-01
 -3.9975967e-02
 -4.6456119e-01
 -4.4013333e-02
  1.0469811e-01
 -5.0631683e-02
  3.1621674e-01
 -1.0761959e-01
  1.1181313e+00
  9.5890209e-02
  5.2161485e-01
  1.2439710e-01
 -6.2457609e-01
  3.1383708e-01
  4.8670420e-01
  2.5734174e-01
 -4.6568539e-02
 -5.0803447e-01
  4.1696117e-03
  3.1625308e-02
  2.8196627e-01
 -1.2836471e-01
 -3.5722670e-03
  3.2933375e-01
  2.0287130e-02
 -4.5287084e-02
  3.6128916e-02
 -2.1745914e-01
  1.6436030e-01
  2.3670185e-02
 -8.7661512e-02
  2.4895288e-01
  2.6899781e-02
  9.6784532e-03
 -3.1671237e-02
 -4.9279127e-02
 -8.6646438e-02
  3.6035582e-02
 -3.0140567e-03
  4.4748396e-02
  4.4838209e-02
 -1.5237033e-01
 -3.8351980e-01
  1.7261775e-01
 -2.8937588e-02
  1.5780671e-01
  4.6617225e-02
  6.9125532e-04
 -3.2012094e-02
 -3.9209986e-01
 -3.5410944e-02
  4.7642637e-02
 -2.9936457e-01
 -5.2762683e-02
 -5.9346563e-01
 -1.0807593e+00
  2.7574115e-03
  5.7749867e-01
 -5.4680087e-02
 -2.0636719e-01
 -1.1049606e-01
  1.0510590e-02
  6.3210510e-02
 -3.7511848e-02
  3.6232883e-01
  9.8249033e-02
 -8.5635167e-03
  3.0316396e-02
  1.8054655e-02
 -6.7609452e-02
 -9.8592617e-02
  6.3418552e-02
  4.5110723e-03
  6.0830526e-02
  3.4661815e-02
  1.0011960e-02
  1.7197568e-02
 -4.5490719e-02
  2.0747678e-02
 -4.1976657e-02
 -2.6459615e-03
 -2.1703739e-02
 -4.4095989e-02
 -8.3602168e-02
 -1.9168089e-01
 -3.5761457e-02
 -2.5167495e-01
 -2.9824272e-02
 -1.0858729e-02
  2.5442718e-02
 -1.0905496e-01
 -1.1342461e-01
  3.0730916e-02
 -1.4716595e-01
  6.5929140e-03
 -6.5512747e-02
 -6.9623441e-02
  3.7864864e-02
 -1.7135091e-02
  9.0391561e-03
 -3.9467905e-03
 -2.5010323e-03
 -1.7044945e-02
  3.8630182e-01
  1.1650876e-01
  7.8380227e-02
 -2.0659499e-02
 -5.4280031e-02
 -2.3883387e-01
  3.2041732e-02
 -2.2045026e-02
  6.1330486e-02
  2.5489396e-01
  4.9135703e-01
 -2.9589482e-02
  2.6926780e-02
 -3.9157871e-02
  5.3302129e-04
 -1.7427299e-02
 -1.3797561e-02
  1.4373341e-02
 -2.3335882e-02
  5.7266941e-03
  8.4362794e-03
 -6.3980430e-02
  2.7978327e-02
 -1.3765415e-02
  2.1039234e-02
 -3.2332364e-02
 -3.4184687e-02
  1.0341029e-01
 -2.8860569e-03
 -5.7068966e-02
  4.1056234e-02
 -2.5172349e-02
 -7.3137313e-02
 -5.0193565e-03
 -5.2787270e-02
 -2.5241381e-02
  1.1359644e-01
  1.4215427e-02
  1.5160332e-02
  2.4672744e-01
 -1.8800654e-02
 -4.9362086e-02
 -4.6569977e-02
  5.3297967e-02
 -3.3036876e-02
  8.3254827e-03
